{"format":"dual-sweep-saturation-ensemble-v1","source_experiment":"per_gpu_base_finetune","source_method":"local_retrained_75","split":"strict_config_50_25_25","aggregation":"mean_probability_across_seeds","threshold":0.3,"target_definition":"request_throughput_rps / request_rate < 0.95","seeds":[3,7,11,19,23],"sources":[{"seed":3,"file":"per_gpu_base_finetune__seed=3.joblib","sha256":"66333d528a3fa9cc0d09acd9645dae2a565907ea150eb6bd75a2a495045f3ea2"},{"seed":7,"file":"per_gpu_base_finetune__seed=7.joblib","sha256":"a8656aa9bce78ebee3c77ea4cc156e8b7616f157de0ffa71589368424ca085cd"},{"seed":11,"file":"per_gpu_base_finetune__seed=11.joblib","sha256":"fbb2a921c61b47eddfb284d22502587be345d6f3d7d609e81e132c6aba8d009b"},{"seed":19,"file":"per_gpu_base_finetune__seed=19.joblib","sha256":"a374511932879d56df515d1e9c3697a928e45e9b493448ccc3139760d7831f51"},{"seed":23,"file":"per_gpu_base_finetune__seed=23.joblib","sha256":"2134a3c8458884f229551024c3e2863039e4b274efa725d8fb8bc16b7164fede"}],"pools":{"l4":[{"seed":3,"features":["gpu_is_l4","gpu_is_l40s","tp","freq_norm","log_il","log_ol","log_rate","decode_frac","prefill_frac","log_d_prefill","log_d_decode","log_kv_pressure"],"model":{"kind":"gbdt_binary","init_raw":0.4641385097933373,"learning_rate":0.06,"trees":[{"children_left":[1,2,-1,-1,5,-1,-1],"children_right":[4,3,-1,-1,6,-1,-1],"feature":[11,2,-2,-2,9,-2,-2],"threshold":[14.523821830749512,3.0,-2.0,-2.0,9.580703735351562,-2.0,-2.0],"value":[-7.51844034734869e-18,-0.1897530610848906,0.8794514690611446,-1.7467793257653934,0.3860045146726852,1.6286764705882355,1.6286764705882353]},{"children_left":[1,2,-1,-1,5,-1,-1],"children_right":[4,3,-1,-1,6,-1,-1],"feature":[11,2,-2,-2,2,-2,-2],"threshold":[13.83067512512207,3.0,-2.0,-2.0,6.0,-2.0,-2.0],"value":[0.00022762595062005188,-0.2725675789079051,0.5419386122170495,-2.0881623611271625,0.24387804396528648,1.5470486357389897,-0.2890066150353443]},{"children_left":[1,2,-1,-1,5,-1,-1],"children_right":[4,3,-1,-1,6,-1,-1],"feature":[11,2,-2,-2,11,-2,-2],"threshold":[14.400392055511475,3.0,-2.0,-2.0,14.523821830749512,-2.0,-2.0],"value":[0.0004127843693595842,-0.1913140697089343,0.7315887865995153,-1.6000053850749592,0.3112598732300249,0.3320051389732633,1.5344705491904937]},{"children_left":[1,2,-1,-1,5,-1,-1],"children_right":[4,3,-1,-1,6,-1,-1],"feature":[11,2,-2,-2,2,-2,-2],"threshold":[13.83067512512207,3.0,-2.0,-2.0,6.0,-2.0,-2.0],"value":[0.0005560751704744279,-0.24471698991718258,0.47603684272577546,-1.8130995897182225,0.21962475296244127,1.4684711743696468,-0.29018984973246126]},{"children_left":[1,2,-1,-1,5,-1,-1],"children_right":[4,3,-1,-1,6,-1,-1],"feature":[11,2,-2,-2,2,-2,-2],"threshold":[14.523821830749512,3.0,-2.0,-2.0,6.0,-2.0,-2.0],"value":[0.0006600178352620134,-0.15335759938285093,0.7321373204578234,-1.3447573021786783,0.3139698282036153,1.4339358705165712,1.5383881324798212]},{"children_left":[1,2,-1,-1,5,-1,-1],"children_right":[4,3,-1,-1,6,-1,-1],"feature":[11,2,-2,-2,2,-2,-2],"threshold":[13.83067512512207,3.0,-2.0,-2.0,6.0,-2.0,-2.0],"value":[0.0007570455189850574,-0.2208928483378911,0.4133585744166955,-1.616316596873965,0.1987263951603815,1.4076105878971186,-0.2846179513240893]},{"children_left":[1,2,-1,-1,5,-1,-1],"children_right":[4,3,-1,-1,6,-1,-1],"feature":[11,2,-2,-2,2,-2,-2],"threshold":[14.523821830749512,3.0,-2.0,-2.0,6.0,-2.0,-2.0],"value":[0.0008126027602054085,-0.1381575206860168,0.6675872893162085,-1.2085534723646645,0.2835121004556027,1.3659160633133998,1.4993731066224085]},{"children_left":[1,2,-1,-1,5,-1,-1],"children_right":[4,3,-1,-1,6,-1,-1],"feature":[10,11,-2,-2,2,-2,-2],"threshold":[5.315626621246338,12.6793851852417,-2.0,-2.0,6.0,-2.0,-2.0],"value":[0.0008758809094278164,-0.3572408368062421,-1.7283268966672474,0.6915175375664172,0.10393854094969325,0.9102621991091168,-0.5300371213031966]},{"children_left":[1,2,-1,-1,5,-1,-1],"children_right":[4,3,-1,-1,6,-1,-1],"feature":[11,10,-2,-2,2,-2,-2],"threshold":[13.83067512512207,6.9002110958099365,-2.0,-2.0,6.0,-2.0,-2.0],"value":[0.0008807078572767502,-0.1929711414493835,-1.2074830452269152,1.5030996257033897,0.17402188950296932,1.3358851949498378,-0.24925458049300694]},{"children_left":[1,2,-1,-1,5,-1,-1],"children_right":[4,3,-1,-1,6,-1,-1],"feature":[11,2,-2,-2,2,-2,-2],"threshold":[14.523821830749512,3.0,-2.0,-2.0,6.0,-2.0,-2.0],"value":[0.0009483306337168805,-0.12176361527635389,0.6298483213396853,-1.0965901260794324,0.2505746863548888,1.2946181657197402,1.478257189303576]},{"children_left":[1,2,-1,-1,5,-1,-1],"children_right":[4,3,-1,-1,6,-1,-1],"feature":[10,11,-2,-2,11,-2,-2],"threshold":[5.315626621246338,12.6793851852417,-2.0,-2.0,14.523821830749512,-2.0,-2.0],"value":[0.0009844484887145473,-0.3115917813850024,-1.544206045725166,0.6754839276253289,0.09094097976051087,-0.06961983856506224,1.3194798182756233]},{"children_left":[1,2,-1,-1,5,-1,-1],"children_right":[4,3,-1,-1,6,-1,-1],"feature":[10,11,-2,-2,2,-2,-2],"threshold":[5.315626621246338,12.6793851852417,-2.0,-2.0,6.0,-2.0,-2.0],"value":[0.0010007711470592033,-0.292990811118913,-1.4678371267033694,0.6429517443959497,0.08560881371778982,0.8339990786040318,-0.4963029001996548]},{"children_left":[1,2,-1,-1,5,-1,-1],"children_right":[4,3,-1,-1,6,-1,-1],"feature":[11,10,-2,-2,2,-2,-2],"threshold":[13.97451639175415,6.9002110958099365,-2.0,-2.0,6.0,-2.0,-2.0],"value":[0.000966770091467786,-0.14941246036800923,-0.9994927124082444,1.4547931400863183,0.15617469143725832,1.323646451469564,-0.13766123738582703]},{"children_left":[1,2,-1,-1,5,-1,-1],"children_right":[4,3,-1,-1,6,-1,-1],"feature":[11,2,-2,-2,2,-2,-2],"threshold":[14.523821830749512,3.0,-2.0,-2.0,6.0,-2.0,-2.0],"value":[0.0010147979733511293,-0.1010569809432735,0.6195019140085409,-0.9850932010664896,0.20865396467360822,1.2212682029234783,1.420028375004378]},{"children_left":[1,2,-1,-1,5,-1,-1],"children_right":[4,3,-1,-1,6,-1,-1],"feature":[11,10,-2,-2,2,-2,-2],"threshold":[13.83067512512207,6.9002110958099365,-2.0,-2.0,6.0,-2.0,-2.0],"value":[0.0010300086223179684,-0.14524537914549357,-0.9860379522605348,1.4162632178129644,0.131677684021774,1.2473901690446383,-0.26882879719775304]},{"children_left":[1,2,-1,-1,5,-1,-1],"children_right":[4,3,-1,-1,6,-1,-1],"feature":[11,2,-2,-2,2,-2,-2],"threshold":[14.523821830749512,3.0,-2.0,-2.0,6.0,-2.0,-2.0],"value":[0.0010585552363458189,-0.09149194255560955,0.5992164732531284,-0.9258215325575943,0.18932908841587182,1.190805779853036,1.3919954740218605]},{"children_left":[1,2,-1,-1,5,-1,-1],"children_right":[4,3,-1,-1,6,-1,-1],"feature":[10,11,-2,-2,2,-2,-2],"threshold":[5.315626621246338,11.293100357055664,-2.0,-2.0,6.0,-2.0,-2.0],"value":[0.0010632717900667516,-0.23806820621666655,-1.7851538684465276,-0.5681636134297817,0.0698830866815392,0.7648638006768904,-0.4254254674863083]},{"children_left":[1,2,-1,-1,5,-1,-1],"children_right":[4,3,-1,-1,6,-1,-1],"feature":[10,11,-2,-2,2,-2,-2],"threshold":[6.3516526222229,12.588224411010742,-2.0,-2.0,6.0,-2.0,-2.0],"value":[0.0010115411200892638,-0.16639949329150847,-1.1630006248349063,0.389209744394687,0.09111122977910875,0.9543644165548895,-0.2826363518467564]},{"children_left":[1,2,-1,-1,5,-1,-1],"children_right":[4,3,-1,-1,6,-1,-1],"feature":[11,2,-2,-2,2,-2,-2],"threshold":[14.523821830749512,3.0,-2.0,-2.0,6.0,-2.0,-2.0],"value":[0.0009792455291943094,-0.08242750088333577,0.5723309240304718,-0.870097217002578,0.170649133779341,1.160542719253338,1.3758180202031556]},{"children_left":[1,2,-1,-1,5,-1,-1],"children_right":[4,3,-1,-1,6,-1,-1],"feature":[11,10,-2,-2,2,-2,-2],"threshold":[13.97451639175415,6.9002110958099365,-2.0,-2.0,6.0,-2.0,-2.0],"value":[0.000981158776488711,-0.1104217269542545,-0.8269872010253708,1.3899271541466707,0.11596120138849436,1.2589157195831444,-0.13408290409179713]},{"children_left":[1,2,-1,-1,5,-1,-1],"children_right":[4,3,-1,-1,6,-1,-1],"feature":[11,2,-2,-2,2,-2,-2],"threshold":[14.523821830749512,3.0,-2.0,-2.0,6.0,-2.0,-2.0],"value":[0.0010046557144989493,-0.07454226977775988,0.5568312513561018,-0.8218928788196778,0.15468573017477838,1.1388500522687657,1.3488360994874005]},{"children_left":[1,2,-1,-1,5,-1,-1],"children_right":[4,3,-1,-1,6,-1,-1],"feature":[10,11,-2,-2,2,-2,-2],"threshold":[6.3516526222229,12.588224411010742,-2.0,-2.0,6.0,-2.0,-2.0],"value":[0.0009995799540338417,-0.14128242597627405,-1.067303479386614,0.39571699822448053,0.07757496509013703,0.9093418379117216,-0.2602276910485015]},{"children_left":[1,2,-1,-1,5,-1,-1],"children_right":[4,3,-1,-1,6,-1,-1],"feature":[11,2,-2,-2,2,-2,-2],"threshold":[14.523821830749512,3.0,-2.0,-2.0,6.0,-2.0,-2.0],"value":[0.0009596036595209145,-0.06850330350915097,0.5344003545421078,-0.7800369037653652,0.14226428468072325,1.123023788813527,1.3264543617416193]},{"children_left":[1,2,-1,-1,5,-1,-1],"children_right":[4,3,-1,-1,6,-1,-1],"feature":[10,9,-2,-2,2,-2,-2],"threshold":[5.315626621246338,7.278777599334717,-2.0,-2.0,6.0,-2.0,-2.0],"value":[0.0009531628041089129,-0.1787490385951204,-1.7665568853222113,-0.500482431327242,0.05266978471842203,0.6780216986857884,-0.3587558715575687]},{"children_left":[1,2,-1,-1,5,-1,-1],"children_right":[4,3,-1,-1,6,-1,-1],"feature":[11,10,-2,-2,2,-2,-2],"threshold":[13.83067512512207,6.9002110958099365,-2.0,-2.0,6.0,-2.0,-2.0],"value":[0.0009009805446705217,-0.09790344605384604,-0.7928982370449779,1.3715760271487278,0.08914937866043955,1.1692023600160866,-0.2420238444281739]},{"children_left":[1,2,-1,-1,5,-1,-1],"children_right":[4,3,-1,-1,6,-1,-1],"feature":[11,2,-2,-2,2,-2,-2],"threshold":[14.523821830749512,3.0,-2.0,-2.0,6.0,-2.0,-2.0],"value":[0.000910717939835117,-0.06157647593751375,0.5245672143044443,-0.7433963326675399,0.12802507808759278,1.102942494409979,1.3125461800173346]},{"children_left":[1,2,-1,-1,5,-1,-1],"children_right":[4,3,-1,-1,6,-1,-1],"feature":[10,11,-2,-2,2,-2,-2],"threshold":[6.3516526222229,12.588224411010742,-2.0,-2.0,6.0,-2.0,-2.0],"value":[0.0009021562044343667,-0.1171971100323284,-0.9636843342432829,0.3647589203815249,0.0644625251860257,0.847127321484709,-0.21686470668365357]},{"children_left":[1,2,-1,-1,5,-1,-1],"children_right":[4,3,-1,-1,6,-1,-1],"feature":[11,2,-2,-2,2,-2,-2],"threshold":[14.523821830749512,3.0,-2.0,-2.0,6.0,-2.0,-2.0],"value":[0.0008608831021524651,-0.05677013758366503,0.5053971291260436,-0.7085885782138662,0.11809658956576709,1.0917501801753529,1.2924238659991778]},{"children_left":[1,2,-1,-1,5,-1,-1],"children_right":[4,3,-1,-1,6,-1,-1],"feature":[10,11,-2,-2,2,-2,-2],"threshold":[6.3516526222229,12.588224411010742,-2.0,-2.0,6.0,-2.0,-2.0],"value":[0.0008523378650514356,-0.10832322237146122,-0.9239203389904561,0.3494832182861501,0.05961001785345237,0.8212628043191237,-0.2076099280822308]},{"children_left":[1,2,-1,-1,5,-1,-1],"children_right":[4,3,-1,-1,6,-1,-1],"feature":[10,11,-2,-2,11,-2,-2],"threshold":[6.9002110958099365,13.97451639175415,-2.0,-2.0,14.086088180541992,-2.0,-2.0],"value":[0.0008120356418586633,-0.05187561545606925,-0.672102511698629,0.5819142858909901,0.11249501437760787,1.3575857089061747,0.6932804664596578]},{"children_left":[1,2,-1,-1,5,-1,-1],"children_right":[4,3,-1,-1,6,-1,-1],"feature":[11,2,-2,-2,2,-2,-2],"threshold":[14.523821830749512,6.0,-2.0,-2.0,6.0,-2.0,-2.0],"value":[0.0007825051343403272,-0.05068601726286216,0.104802451770536,-1.0963742540307695,0.10548217055878603,1.078823012268991,1.2634982594114912]},{"children_left":[1,2,-1,-1,5,-1,-1],"children_right":[4,3,-1,-1,6,-1,-1],"feature":[10,4,-2,-2,9,-2,-2],"threshold":[6.9002110958099365,7.278777599334717,-2.0,-2.0,7.5017454624176025,-2.0,-2.0],"value":[0.0007523981565228189,-0.047843108084738455,-0.8631894210525981,0.1575557507213374,0.1037611825129991,1.3365776949817945,0.6629999831526447]},{"children_left":[1,2,-1,-1,5,-1,-1],"children_right":[4,3,-1,-1,6,-1,-1],"feature":[10,11,-2,-2,2,-2,-2],"threshold":[5.315626621246338,11.293100357055664,-2.0,-2.0,6.0,-2.0,-2.0],"value":[0.0007173761769744786,-0.12703566772057806,-1.5279593929781963,-0.16613889804626422,0.037483513810281754,0.5945083458925579,-0.328766700079409]},{"children_left":[1,2,-1,-1,5,-1,-1],"children_right":[4,3,-1,-1,6,-1,-1],"feature":[11,2,-2,-2,2,-2,-2],"threshold":[14.523821830749512,3.0,-2.0,-2.0,6.0,-2.0,-2.0],"value":[0.0006647653253766041,-0.04623413390315349,0.5177854559549795,-0.6636106591090514,0.09606869046834556,1.069323712993022,1.2430239336455657]},{"children_left":[1,2,-1,-1,5,-1,-1],"children_right":[4,3,-1,-1,6,-1,-1],"feature":[10,2,-2,-2,9,-2,-2],"threshold":[6.9002110958099365,3.0,-2.0,-2.0,7.5017454624176025,-2.0,-2.0],"value":[0.0006614471659602321,-0.043527513229164407,0.4555868173749076,-0.6732597019068887,0.09432959560914701,1.3128953017805953,0.6253438871825402]},{"children_left":[1,2,-1,-1,5,-1,-1],"children_right":[4,3,-1,-1,6,-1,-1],"feature":[11,8,-2,-2,2,-2,-2],"threshold":[10.508806705474854,0.31347963213920593,-2.0,-2.0,3.0,-2.0,-2.0],"value":[0.0006314237397602675,-0.21346901071599977,0.7821363709835908,-1.53508592013809,0.01956905430587172,1.0314643341645615,-0.25981080053242667]},{"children_left":[1,2,-1,-1,5,-1,-1],"children_right":[4,3,-1,-1,6,-1,-1],"feature":[11,10,-2,-2,2,-2,-2],"threshold":[13.83067512512207,6.9002110958099365,-2.0,-2.0,6.0,-2.0,-2.0],"value":[0.0006231651336120397,-0.06583645394109766,-0.6417434928024671,1.270260850341358,0.059982397555040735,1.131299018725587,-0.2885982726061765]},{"children_left":[1,2,-1,-1,5,-1,-1],"children_right":[4,3,-1,-1,6,-1,-1],"feature":[11,2,-2,-2,9,-2,-2],"threshold":[14.400392055511475,3.0,-2.0,-2.0,11.246746063232422,-2.0,-2.0],"value":[0.0006329769178778987,-0.04677679355961634,0.4298351938669637,-0.6571223417917854,0.07749852195239533,0.4507637158527646,1.1569948417999574]},{"children_left":[1,2,-1,-1,5,-1,-1],"children_right":[4,3,-1,-1,6,-1,-1],"feature":[11,7,-2,-2,2,-2,-2],"threshold":[10.508806705474854,0.8705882430076599,-2.0,-2.0,3.0,-2.0,-2.0],"value":[0.0006191219069488868,-0.19604622882695372,-1.4763677849920824,0.7655548665293604,0.01801458290552507,1.0025107413426444,-0.23728340349640775]},{"children_left":[1,2,-1,-1,5,-1,-1],"children_right":[4,3,-1,-1,6,-1,-1],"feature":[10,2,-2,-2,9,-2,-2],"threshold":[6.3516526222229,1.5,-2.0,-2.0,7.5017454624176025,-2.0,-2.0],"value":[0.0006069670000799171,-0.0772844554940774,0.21738485411114344,-0.9103486459492146,0.042527697856310435,1.2625517133113002,0.20974212362036035]},{"children_left":[1,2,-1,-1,5,-1,-1],"children_right":[4,3,-1,-1,6,-1,-1],"feature":[11,10,-2,-2,2,-2,-2],"threshold":[13.83067512512207,6.9002110958099365,-2.0,-2.0,6.0,-2.0,-2.0],"value":[0.0005589902065001988,-0.05880340392984488,-0.6039760061665242,1.2095347556153073,0.053579248217167336,1.1225444692322362,-0.28642199666732604]},{"children_left":[1,2,-1,-1,5,-1,-1],"children_right":[4,3,-1,-1,6,-1,-1],"feature":[11,2,-2,-2,2,-2,-2],"threshold":[14.523821830749512,6.0,-2.0,-2.0,6.0,-2.0,-2.0],"value":[0.000568259303981207,-0.03783885429057213,0.11327062482334464,-0.9976697023490243,0.07869779860249047,1.048896978822278,1.223224539914033]},{"children_left":[1,2,-1,-1,5,-1,-1],"children_right":[4,3,-1,-1,6,-1,-1],"feature":[11,8,-2,-2,2,-2,-2],"threshold":[10.508806705474854,0.31347963213920593,-2.0,-2.0,3.0,-2.0,-2.0],"value":[0.0005452451537794318,-0.17841801649937142,0.7508660905490956,-1.4182829242745072,0.016374919403198143,0.9802375521260582,-0.2233208543509502]},{"children_left":[1,2,-1,-1,5,-1,-1],"children_right":[4,3,-1,-1,6,-1,-1],"feature":[11,2,-2,-2,2,-2,-2],"threshold":[14.523821830749512,6.0,-2.0,-2.0,6.0,-2.0,-2.0],"value":[0.0005335738227906524,-0.035353282900389325,0.10373611548741711,-0.9584599484487812,0.073536289211725,1.0447756499774137,1.2102374146021673]},{"children_left":[1,2,-1,-1,5,-1,-1],"children_right":[4,3,-1,-1,6,-1,-1],"feature":[11,10,-2,-2,2,-2,-2],"threshold":[10.508806705474854,6.005858421325684,-2.0,-2.0,3.0,-2.0,-2.0],"value":[0.0005122892257439219,-0.16821494855625804,-1.3757408603086865,0.7084493113397521,0.015436565786314117,0.9510181598599834,-0.20745161439687645]},{"children_left":[1,2,-1,-1,5,-1,-1],"children_right":[4,3,-1,-1,6,-1,-1],"feature":[11,10,-2,-2,2,-2,-2],"threshold":[13.83067512512207,6.9002110958099365,-2.0,-2.0,6.0,-2.0,-2.0],"value":[0.0004999882209392182,-0.05163139879184846,-0.5779219769611692,1.2337434089429569,0.04706178260415551,1.1051206271118008,-0.2603380310044287]},{"children_left":[1,2,-1,-1,5,-1,-1],"children_right":[4,3,-1,-1,6,-1,-1],"feature":[11,2,-2,-2,2,-2,-2],"threshold":[14.523821830749512,6.0,-2.0,-2.0,6.0,-2.0,-2.0],"value":[0.0005066765200280224,-0.03241537125099358,0.0967024232682708,-0.9202047911119302,0.06747823945148958,1.0385438120334094,1.2010852518893294]},{"children_left":[1,2,-1,-1,5,-1,-1],"children_right":[4,3,-1,-1,6,-1,-1],"feature":[10,2,-2,-2,9,-2,-2],"threshold":[6.3516526222229,1.5,-2.0,-2.0,7.5017454624176025,-2.0,-2.0],"value":[0.00048637374152264094,-0.062146812266732236,0.23544492219343813,-0.861106907372316,0.03419520648902094,1.2158685878691318,0.17886774806230823]},{"children_left":[1,2,-1,-1,5,-1,-1],"children_right":[4,3,-1,-1,6,-1,-1],"feature":[11,7,-2,-2,2,-2,-2],"threshold":[10.508806705474854,0.8705882430076599,-2.0,-2.0,3.0,-2.0,-2.0],"value":[0.0004476469422877675,-0.1534237550156536,-1.3247765208922222,0.6965172464589897,0.014057893798518462,0.9294201858959562,-0.19742049233175762]},{"children_left":[1,2,-1,-1,5,-1,-1],"children_right":[4,3,-1,-1,6,-1,-1],"feature":[11,10,-2,-2,2,-2,-2],"threshold":[13.97451639175415,6.9002110958099365,-2.0,-2.0,6.0,-2.0,-2.0],"value":[0.0004363231894025638,-0.043498927845177005,-0.5086977602173055,1.1756665818041494,0.045782339165459374,1.2080018898780074,-0.1653381503039164]},{"children_left":[1,2,-1,-1,5,-1,-1],"children_right":[4,3,-1,-1,6,-1,-1],"feature":[11,2,-2,-2,2,-2,-2],"threshold":[14.523821830749512,6.0,-2.0,-2.0,6.0,-2.0,-2.0],"value":[0.00044925952122737135,-0.029474259442722847,0.09475223073465124,-0.8917747621552049,0.061321075495838415,1.0328927854418075,1.1895317495192603]},{"children_left":[1,2,-1,-1,5,-1,-1],"children_right":[4,3,-1,-1,6,-1,-1],"feature":[11,10,-2,-2,2,-2,-2],"threshold":[10.508806705474854,5.315626621246338,-2.0,-2.0,3.0,-2.0,-2.0],"value":[0.00043167531010296204,-0.14073046665852507,-1.412502734345639,0.32646031584514107,0.012917761577598321,0.9082244161393621,-0.18920206565376965]},{"children_left":[1,2,-1,-1,5,-1,-1],"children_right":[4,3,-1,-1,6,-1,-1],"feature":[11,10,-2,-2,2,-2,-2],"threshold":[13.83067512512207,6.9002110958099365,-2.0,-2.0,6.0,-2.0,-2.0],"value":[0.0004158379688772366,-0.043023884192057354,-0.5248771342016123,1.159890642157808,0.03921456417244698,1.0780432239580469,-0.23504726705206344]},{"children_left":[1,2,-1,-1,5,-1,-1],"children_right":[4,3,-1,-1,6,-1,-1],"feature":[11,2,-2,-2,2,-2,-2],"threshold":[14.523821830749512,6.0,-2.0,-2.0,6.0,-2.0,-2.0],"value":[0.00042129276769829207,-0.0272188423458568,0.08750731459893989,-0.8577402993290606,0.05664814296445065,1.0286047851621822,1.181032501908957]},{"children_left":[1,2,-1,-1,5,-1,-1],"children_right":[4,3,-1,-1,6,-1,-1],"feature":[11,10,-2,-2,2,-2,-2],"threshold":[12.588224411010742,7.043922185897827,-2.0,-2.0,6.0,-2.0,-2.0],"value":[0.0004051323524898471,-0.05774866538807687,-0.6705296699360606,1.2923177790666915,0.02589462162189407,0.6527906214719507,-0.3205436786114852]},{"children_left":[1,2,-1,-1,5,-1,-1],"children_right":[4,3,-1,-1,6,-1,-1],"feature":[11,2,-2,-2,2,-2,-2],"threshold":[14.523821830749512,3.0,-2.0,-2.0,6.0,-2.0,-2.0],"value":[0.00038684032285223605,-0.02557744075965626,0.3945376322875722,-0.48901488789473946,0.05320459019617433,1.0258688212487885,1.1719300040622478]},{"children_left":[1,2,-1,-1,5,-1,-1],"children_right":[4,3,-1,-1,6,-1,-1],"feature":[11,10,-2,-2,2,-2,-2],"threshold":[10.508806705474854,5.315626621246338,-2.0,-2.0,3.0,-2.0,-2.0],"value":[0.0003854874092846491,-0.12515794442165395,-1.3715064068976908,0.3518841088115439,0.011490066146173572,0.8760868720482043,-0.17594601946381463]},{"children_left":[1,2,-1,-1,5,-1,-1],"children_right":[4,3,-1,-1,6,-1,-1],"feature":[10,4,-2,-2,9,-2,-2],"threshold":[6.9002110958099365,7.278777599334717,-2.0,-2.0,7.5017454624176025,-2.0,-2.0],"value":[0.00036942946791174093,-0.024799222380025254,-0.6953075415015862,0.19790155178220875,0.05371988162445413,1.141851972613045,0.4919436092330138]},{"children_left":[1,2,-1,-1,5,-1,-1],"children_right":[4,3,-1,-1,6,-1,-1],"feature":[11,10,-2,-2,2,-2,-2],"threshold":[12.588224411010742,7.043922185897827,-2.0,-2.0,6.0,-2.0,-2.0],"value":[0.0003483825897518484,-0.05210784824431253,-0.6340301876159739,1.2179842278257316,0.023340561689098285,0.6310982268432058,-0.3172883033923366]},{"children_left":[1,2,-1,-1,5,-1,-1],"children_right":[4,3,-1,-1,6,-1,-1],"feature":[11,2,-2,-2,2,-2,-2],"threshold":[13.97451639175415,3.0,-2.0,-2.0,6.0,-2.0,-2.0],"value":[0.00033289292609723535,-0.033280730751792234,0.3278700384895118,-0.6727264401658931,0.03502585314410242,1.191142651618719,-0.14696975908742538]},{"children_left":[1,2,-1,-1,5,-1,-1],"children_right":[4,3,-1,-1,6,-1,-1],"feature":[11,2,-2,-2,2,-2,-2],"threshold":[14.523821830749512,3.0,-2.0,-2.0,6.0,-2.0,-2.0],"value":[0.00032973488727856354,-0.023190164609551603,0.36608955291162243,-0.4613396769462007,0.04817500989110433,1.0211707228214344,1.1632922754485056]},{"children_left":[1,2,-1,-1,5,-1,-1],"children_right":[4,3,-1,-1,6,-1,-1],"feature":[10,4,-2,-2,9,-2,-2],"threshold":[6.9002110958099365,7.278777599334717,-2.0,-2.0,7.5017454624176025,-2.0,-2.0],"value":[0.0003300276183007576,-0.022361260965205923,-0.6608482064414591,0.19348467815078058,0.048429167503057924,1.1148098319669724,0.44672511841187834]},{"children_left":[1,2,-1,-1,5,-1,-1],"children_right":[4,3,-1,-1,6,-1,-1],"feature":[11,10,-2,-2,2,-2,-2],"threshold":[10.508806705474854,5.315626621246338,-2.0,-2.0,3.0,-2.0,-2.0],"value":[0.00031114447536186057,-0.10599342537981722,-1.3256970303187243,0.41356871151737074,0.009714005691053374,0.8367026797545442,-0.16866561903892047]},{"children_left":[1,2,-1,-1,5,-1,-1],"children_right":[4,3,-1,-1,6,-1,-1],"feature":[10,4,-2,-2,9,-2,-2],"threshold":[6.9002110958099365,7.278777599334717,-2.0,-2.0,7.5017454624176025,-2.0,-2.0],"value":[0.000297261670205142,-0.02110110768816452,-0.6339278694805422,0.17778124302435727,0.04565577700027053,1.0765780735583097,0.42819853754967024]},{"children_left":[1,2,-1,-1,5,-1,-1],"children_right":[4,3,-1,-1,6,-1,-1],"feature":[11,2,-2,-2,2,-2,-2],"threshold":[14.523821830749512,6.0,-2.0,-2.0,6.0,-2.0,-2.0],"value":[0.00028034388048837325,-0.021113296673083315,0.0982844666023339,-0.8047143583573911,0.04380028391069928,1.0190989140395923,1.148530739463759]},{"children_left":[1,2,-1,-1,5,-1,-1],"children_right":[4,3,-1,-1,6,-1,-1],"feature":[11,10,-2,-2,2,-2,-2],"threshold":[12.588224411010742,7.043922185897827,-2.0,-2.0,6.0,-2.0,-2.0],"value":[0.00027056962315563177,-0.04471190054719153,-0.5905644300049028,1.1618216093411924,0.0199869120679507,0.6036008536298758,-0.31260697441143426]},{"children_left":[1,2,-1,-1,5,-1,-1],"children_right":[4,3,-1,-1,6,-1,-1],"feature":[11,2,-2,-2,2,-2,-2],"threshold":[14.523821830749512,3.0,-2.0,-2.0,6.0,-2.0,-2.0],"value":[0.00025889613630373343,-0.019914845766719078,0.3707955278668354,-0.43834469061680914,0.0412972615143707,1.017333457475441,1.1412745317476027]},{"children_left":[1,2,-1,-1,5,-1,-1],"children_right":[4,3,-1,-1,6,-1,-1],"feature":[10,4,-2,-2,9,-2,-2],"threshold":[6.9002110958099365,7.278777599334717,-2.0,-2.0,7.5017454624176025,-2.0,-2.0],"value":[0.00026120215997576905,-0.01914120594615897,-0.6057286227002154,0.17917821019560976,0.041388841877909296,1.0484403333637786,0.39700508920637767]},{"children_left":[1,2,-1,-1,5,-1,-1],"children_right":[4,3,-1,-1,6,-1,-1],"feature":[11,10,-2,-2,2,-2,-2],"threshold":[12.588224411010742,7.043922185897827,-2.0,-2.0,6.0,-2.0,-2.0],"value":[0.00024639728898600725,-0.041260057100257326,-0.5566564538677279,1.0836011936562577,0.018439161388167327,0.5892455900336553,-0.31950631537275176]},{"children_left":[1,2,-1,-1,5,-1,-1],"children_right":[4,3,-1,-1,6,-1,-1],"feature":[8,9,-2,-2,4,-2,-2],"threshold":[0.6971153914928436,5.315626621246338,-2.0,-2.0,7.278777599334717,-2.0,-2.0],"value":[0.0002361012123891494,0.09482221765744164,0.004969223434836827,1.6083160758250459,-0.007626803333165315,-0.5129614546035492,0.2891496457485239]},{"children_left":[1,2,-1,-1,5,-1,-1],"children_right":[4,3,-1,-1,6,-1,-1],"feature":[11,2,-2,-2,2,-2,-2],"threshold":[14.523821830749512,3.0,-2.0,-2.0,6.0,-2.0,-2.0],"value":[0.00022652413639475663,-0.018226986049546885,0.38504170528296805,-0.4348786366166939,0.037765514035193945,1.0152393230694028,1.1300654257581153]},{"children_left":[1,-1,3,-1,-1],"children_right":[2,-1,4,-1,-1],"feature":[11,-2,7,-2,-2],"threshold":[8.776082515716553,-2.0,0.5833333432674408,-2.0,-2.0],"value":[0.00022950288643687716,-1.310461552451638,0.003784984886213049,-0.05418072935139884,1.096634788666279]},{"children_left":[1,2,-1,-1,5,-1,-1],"children_right":[4,3,-1,-1,6,-1,-1],"feature":[11,10,-2,-2,2,-2,-2],"threshold":[12.588224411010742,7.043922185897827,-2.0,-2.0,6.0,-2.0,-2.0],"value":[0.000216623403653434,-0.03854420860675558,-0.531500463838316,1.0201669039021835,0.017205949122501524,0.5753381331340776,-0.32249995814661303]},{"children_left":[1,2,-1,-1,5,-1,-1],"children_right":[4,3,-1,-1,6,-1,-1],"feature":[11,2,-2,-2,2,-2,-2],"threshold":[14.523821830749512,3.0,-2.0,-2.0,6.0,-2.0,-2.0],"value":[0.00020789505992019515,-0.01727752044605674,0.37879815634209785,-0.42439706056778564,0.035777541671393895,1.0138964647531337,1.1243250890139656]},{"children_left":[1,-1,3,-1,-1],"children_right":[2,-1,4,-1,-1],"feature":[11,-2,8,-2,-2],"threshold":[8.776082515716553,-2.0,0.6971153914928436,-2.0,-2.0],"value":[0.00021132507601952073,-1.2853913783231534,0.0035276051368444347,1.0643199026593284,-0.052886825926301985]},{"children_left":[1,2,-1,-1,5,-1,-1],"children_right":[4,3,-1,-1,6,-1,-1],"feature":[4,8,-2,-2,11,-2,-2],"threshold":[7.278777599334717,0.6971153914928436,-2.0,-2.0,11.293100357055664,-2.0,-2.0],"value":[0.000199434569555094,-0.030474730925124118,0.7795872039868509,-0.47649122288951257,0.019667908610458487,-1.3850719006148733,0.37011096950456795]},{"children_left":[1,2,-1,-1,5,-1,-1],"children_right":[4,3,-1,-1,6,-1,-1],"feature":[11,10,-2,-2,2,-2,-2],"threshold":[11.89508056640625,6.005858421325684,-2.0,-2.0,6.0,-2.0,-2.0],"value":[0.0001841990334793372,-0.048196477675505146,-0.7658543369956999,0.683994600455588,0.012007566656180602,0.44130144277287503,-0.32672431584516465]},{"children_left":[1,2,-1,-1,5,-1,-1],"children_right":[4,3,-1,-1,6,-1,-1],"feature":[11,2,-2,-2,2,-2,-2],"threshold":[13.97451639175415,3.0,-2.0,-2.0,6.0,-2.0,-2.0],"value":[0.00017016716990414662,-0.02323844683480857,0.3313677160379591,-0.6212704911067245,0.024330433917887476,1.1900955154334674,-0.22024289777700026]},{"children_left":[1,2,-1,-1,5,-1,-1],"children_right":[4,3,-1,-1,6,-1,-1],"feature":[10,2,-2,-2,3,-2,-2],"threshold":[6.9002110958099365,3.0,-2.0,-2.0,0.43382352590560913,-2.0,-2.0],"value":[0.0001742324589953011,-0.015782914935398098,0.34084994433030635,-0.47301723513060806,0.03399888996401233,0.7625070872250524,0.42079892756934156]},{"children_left":[1,2,-1,-1,5,-1,-1],"children_right":[4,3,-1,-1,6,-1,-1],"feature":[4,7,-2,-2,11,-2,-2],"threshold":[7.278777599334717,0.5833333432674408,-2.0,-2.0,11.293100357055664,-2.0,-2.0],"value":[0.00016395127621261432,-0.029506402449899386,-0.46734323891710466,0.7278125132662697,0.01899531969278552,-1.3862050601748226,0.3652429890032317]},{"children_left":[1,2,-1,-1,5,-1,-1],"children_right":[4,3,-1,-1,6,-1,-1],"feature":[11,10,-2,-2,2,-2,-2],"threshold":[10.508806705474854,5.315626621246338,-2.0,-2.0,3.0,-2.0,-2.0],"value":[0.00015121782613097983,-0.07779570298232841,-1.2488118942968982,0.4097859643384547,0.007045785760048766,0.7601628127572437,-0.1577799746902104]},{"children_left":[1,2,-1,-1,5,-1,-1],"children_right":[4,3,-1,-1,6,-1,-1],"feature":[11,2,-2,-2,2,-2,-2],"threshold":[14.600897312164307,6.0,-2.0,-2.0,6.0,-2.0,-2.0],"value":[0.00014365213843565836,-0.015612440197494484,0.0951638755093996,-0.7374843908003027,0.03252513845641623,1.011448248988273,1.1169795791448123]},{"children_left":[1,2,-1,-1,5,-1,-1],"children_right":[4,3,-1,-1,6,-1,-1],"feature":[10,4,-2,-2,8,-2,-2],"threshold":[6.005858421325684,7.827758550643921,-2.0,-2.0,0.6971153914928436,-2.0,-2.0],"value":[0.00014087230051300711,-0.036317319925298165,-0.9802373198979493,0.17574873315785836,0.013685711517532647,0.9611293069334715,0.07223636123451802]},{"children_left":[1,2,-1,-1,5,-1,-1],"children_right":[4,3,-1,-1,6,-1,-1],"feature":[11,10,-2,-2,2,-2,-2],"threshold":[12.588224411010742,7.043922185897827,-2.0,-2.0,6.0,-2.0,-2.0],"value":[0.0001293658880052294,-0.0323508270581388,-0.5052732817748741,0.9885410242517715,0.014365814094918999,0.5309462682687793,-0.2971921016291228]},{"children_left":[1,2,-1,-1,5,-1,-1],"children_right":[4,3,-1,-1,6,-1,-1],"feature":[4,10,-2,-2,2,-2,-2],"threshold":[7.278777599334717,6.9002110958099365,-2.0,-2.0,6.0,-2.0,-2.0],"value":[0.00012488359180223976,-0.026794385334104935,-0.5324315060240162,0.37650475856371246,0.017210176046621554,0.6135301298109094,-0.2042419745714422]},{"children_left":[1,2,-1,-1,5,-1,-1],"children_right":[4,3,-1,-1,6,-1,-1],"feature":[11,2,-2,-2,2,-2,-2],"threshold":[14.600897312164307,3.0,-2.0,-2.0,6.0,-2.0,-2.0],"value":[0.00011895337195033682,-0.014751031341621746,0.36073134055004286,-0.40224668330729985,0.030679335748808833,1.0100216984414196,1.1122369040794726]},{"children_left":[1,2,-1,-1,5,-1,-1],"children_right":[4,3,-1,-1,6,-1,-1],"feature":[10,4,-2,-2,8,-2,-2],"threshold":[6.005858421325684,7.827758550643921,-2.0,-2.0,0.6971153914928436,-2.0,-2.0],"value":[0.00012570786765793115,-0.03306012573699238,-0.9272233226700597,0.16261851431074809,0.01245481013563947,0.9317512498552041,0.06395495424889547]},{"children_left":[1,2,-1,-1,5,-1,-1],"children_right":[4,3,-1,-1,6,-1,-1],"feature":[11,2,-2,-2,2,-2,-2],"threshold":[14.600897312164307,3.0,-2.0,-2.0,6.0,-2.0,-2.0],"value":[0.00011576133689305882,-0.013829892163213463,0.3577439776278822,-0.3881805119702947,0.02877648370262921,1.009395235734015,1.104584499146353]},{"children_left":[1,2,-1,-1,5,-1,-1],"children_right":[4,3,-1,-1,6,-1,-1],"feature":[11,3,-2,-2,2,-2,-2],"threshold":[12.588224411010742,0.22794117778539658,-2.0,-2.0,6.0,-2.0,-2.0],"value":[0.00012208882994902797,-0.029383488347691947,0.5064259737108184,-0.6115110440568017,0.01305472817729167,0.5164784776198807,-0.3058892621811457]},{"children_left":[1,2,-1,-1,5,-1,-1],"children_right":[4,3,-1,-1,6,-1,-1],"feature":[10,4,-2,-2,3,-2,-2],"threshold":[6.9002110958099365,7.278777599334717,-2.0,-2.0,0.43382352590560913,-2.0,-2.0],"value":[0.00011527592986009461,-0.01326193443141168,-0.5143224209186816,0.1612984637951497,0.02847119366748552,0.7252120514614966,0.36295285961726476]},{"children_left":[1,2,-1,-1,5,-1,-1],"children_right":[4,3,-1,-1,6,-1,-1],"feature":[2,9,-2,-2,11,-2,-2],"threshold":[3.0,7.266890048980713,-2.0,-2.0,14.635393619537354,-2.0,-2.0],"value":[0.00010815952301303904,0.02293478848471156,-0.4877196309826525,0.9786113140316753,-0.015958275476951646,-0.3795721844424624,1.0876850177880093]},{"children_left":[1,2,-1,-1,5,-1,-1],"children_right":[4,3,-1,-1,6,-1,-1],"feature":[10,4,-2,-2,11,-2,-2],"threshold":[6.005858421325684,7.827758550643921,-2.0,-2.0,11.436939716339111,-2.0,-2.0],"value":[0.00012585938170288303,-0.03016340657388575,-0.8828828844945577,0.15250875681405748,0.011378837445698661,1.1469668766955503,0.09067430048940502]},{"children_left":[1,2,-1,-1,5,-1,-1],"children_right":[4,3,-1,-1,6,-1,-1],"feature":[2,9,-2,-2,11,-2,-2],"threshold":[3.0,7.266890048980713,-2.0,-2.0,13.97451639175415,-2.0,-2.0],"value":[0.00011544938154228306,0.022231165916784597,-0.4460196330995128,0.9578399233283145,-0.015450612641339788,-0.5636142438854417,0.29207654246508125]},{"children_left":[1,2,-1,-1,5,-1,-1],"children_right":[4,3,-1,-1,6,-1,-1],"feature":[7,4,-2,-2,9,-2,-2],"threshold":[0.5833333432674408,7.278777599334717,-2.0,-2.0,5.315626621246338,-2.0,-2.0],"value":[0.00011617032439384502,-0.005158095248748168,-0.39515851299693466,0.22836487716779216,0.06356248266013136,-0.19073955056831868,1.5037663802390437]},{"children_left":[1,2,-1,-1,5,-1,-1],"children_right":[4,3,-1,-1,6,-1,-1],"feature":[2,9,-2,-2,11,-2,-2],"threshold":[3.0,7.827758550643921,-2.0,-2.0,14.635393619537354,-2.0,-2.0],"value":[0.00011386825359317963,0.02139264927232904,-0.36584985396146796,1.046008432877386,-0.014863119924978588,-0.35748552472432266,1.0793136362662759]},{"children_left":[1,2,-1,-1,5,-1,-1],"children_right":[4,3,-1,-1,6,-1,-1],"feature":[10,3,-2,-2,3,-2,-2],"threshold":[5.315626621246338,0.9485294222831726,-2.0,-2.0,0.43382352590560913,-2.0,-2.0],"value":[0.00013154443466017318,-0.03299653745786062,-1.144160614197743,0.190487621713199,0.009665498235124028,0.47820026634960455,-0.11113022529219672]},{"children_left":[1,2,-1,-1,5,-1,-1],"children_right":[4,3,-1,-1,6,-1,-1],"feature":[7,4,-2,-2,9,-2,-2],"threshold":[0.5833333432674408,7.278777599334717,-2.0,-2.0,5.315626621246338,-2.0,-2.0],"value":[0.00010998962715055113,-0.004938468082496336,-0.37376293543486794,0.21408281838197796,0.06083996619319729,-0.15914793606879296,1.4703209788619676]},{"children_left":[1,2,-1,-1,5,-1,-1],"children_right":[4,3,-1,-1,6,-1,-1],"feature":[2,7,-2,-2,10,-2,-2],"threshold":[3.0,0.04941176436841488,-2.0,-2.0,6.9002110958099365,-2.0,-2.0],"value":[0.00010805506044283805,0.02065328204850097,0.9309281206458633,-0.23951367159071038,-0.014352623934998079,-0.4327269571958287,0.45768798515477455]},{"children_left":[1,2,-1,-1,5,-1,-1],"children_right":[4,3,-1,-1,6,-1,-1],"feature":[10,11,-2,-2,3,-2,-2],"threshold":[5.315626621246338,11.293100357055664,-2.0,-2.0,0.43382352590560913,-2.0,-2.0],"value":[0.0001101528243411425,-0.03167242149039646,-1.2412494373261567,0.013370806644553819,0.009256882060268522,0.45700743539534383,-0.10174925798275351]},{"children_left":[1,2,-1,-1,5,-1,-1],"children_right":[4,3,-1,-1,6,-1,-1],"feature":[2,7,-2,-2,11,-2,-2],"threshold":[3.0,0.04941176436841488,-2.0,-2.0,14.635393619537354,-2.0,-2.0],"value":[9.337980724659776e-05,0.020047974154729475,0.9140264079701091,-0.21131194603863115,-0.013951584675789431,-0.3424274899193405,1.0733598672166738]},{"children_left":[1,2,-1,-1,5,-1,-1],"children_right":[4,3,-1,-1,6,-1,-1],"feature":[8,9,-2,-2,4,-2,-2],"threshold":[0.6971153914928436,5.315626621246338,-2.0,-2.0,7.278777599334717,-2.0,-2.0],"value":[0.00010622913017437787,0.05765911139662909,-0.11939324722769236,1.428807971488891,-0.004678118050900098,-0.35924555255353957,0.2036597463038719]},{"children_left":[1,2,-1,-1,5,-1,-1],"children_right":[4,3,-1,-1,6,-1,-1],"feature":[10,3,-2,-2,3,-2,-2],"threshold":[5.315626621246338,0.9485294222831726,-2.0,-2.0,0.33088235557079315,-2.0,-2.0],"value":[0.00010442591911410869,-0.03056736789835475,-1.1274108846663702,0.14480269096818627,0.008931482860769389,0.5119824336862773,-0.05421797967701648]},{"children_left":[1,2,-1,-1,5,-1,-1],"children_right":[4,3,-1,-1,6,-1,-1],"feature":[2,11,-2,-2,8,-2,-2],"threshold":[6.0,13.83067512512207,-2.0,-2.0,0.8497316837310791,-2.0,-2.0],"value":[8.575064129644367e-05,0.010481177927961077,-0.18122025489753749,0.9605903796283776,-0.026067824357693115,1.0094177488797043,-0.5811861148157572]},{"children_left":[1,2,-1,-1,5,-1,-1],"children_right":[4,3,-1,-1,6,-1,-1],"feature":[2,11,-2,-2,11,-2,-2],"threshold":[3.0,8.776082515716553,-2.0,-2.0,14.635393619537354,-2.0,-2.0],"value":[9.179741850500949e-05,0.019542442785817394,-1.153492535496903,0.48951102136030095,-0.013598464513103321,-0.34169621656360377,1.0707039888622683]},{"children_left":[1,2,-1,-1,5,-1,-1],"children_right":[4,3,-1,-1,6,-1,-1],"feature":[2,11,-2,-2,8,-2,-2],"threshold":[6.0,12.097812175750732,-2.0,-2.0,0.8497316837310791,-2.0,-2.0],"value":[9.504436538970263e-05,0.009825692023712123,-0.4093204398435954,0.41604311240565184,-0.024386029505151615,0.9756745423258287,-0.5690229323780048]},{"children_left":[1,2,-1,-1,5,-1,-1],"children_right":[4,3,-1,-1,6,-1,-1],"feature":[2,9,-2,-2,11,-2,-2],"threshold":[3.0,7.827758550643921,-2.0,-2.0,13.97451639175415,-2.0,-2.0],"value":[8.894002327114243e-05,0.018454567493891107,-0.27573848117131167,0.9868589377783736,-0.012837636234896024,-0.5404982266185944,0.2786044982907976]},{"children_left":[1,2,-1,-1,5,-1,-1],"children_right":[4,3,-1,-1,6,-1,-1],"feature":[8,9,-2,-2,4,-2,-2],"threshold":[0.6971153914928436,5.315626621246338,-2.0,-2.0,7.278777599334717,-2.0,-2.0],"value":[9.15160562130825e-05,0.054935818300003963,-0.06163964005497464,1.372573739443815,-0.0044676679933930135,-0.3500265656207869,0.1974738372171009]},{"children_left":[1,2,-1,-1,5,-1,-1],"children_right":[4,3,-1,-1,6,-1,-1],"feature":[7,2,-2,-2,9,-2,-2],"threshold":[0.5833333432674408,6.0,-2.0,-2.0,5.315626621246338,-2.0,-2.0],"value":[9.052292402374117e-05,-0.0042006604705703355,0.13773334507678472,-0.46913818146646774,0.051710934935464,-0.0579035529730109,1.3475674575124765]},{"children_left":[1,2,-1,-1,5,-1,-1],"children_right":[4,3,-1,-1,6,-1,-1],"feature":[10,11,-2,-2,3,-2,-2],"threshold":[5.315626621246338,11.293100357055664,-2.0,-2.0,0.13970588520169258,-2.0,-2.0],"value":[8.833095576482804e-05,-0.02715255283950916,-1.237125045896859,0.010672151103205638,0.00792800390847449,0.8993051356574734,0.024993864416047038]},{"children_left":[1,2,-1,-1,5,-1,-1],"children_right":[4,3,-1,-1,6,-1,-1],"feature":[2,7,-2,-2,11,-2,-2],"threshold":[3.0,0.04941176436841488,-2.0,-2.0,13.97451639175415,-2.0,-2.0],"value":[7.3614911685847e-05,0.01767604789500155,0.8696549022458213,-0.16407126747131906,-0.012315789841955553,-0.5353799273013283,0.2705239297845827]},{"children_left":[1,2,-1,-1,5,-1,-1],"children_right":[4,3,-1,-1,6,-1,-1],"feature":[8,9,-2,-2,11,-2,-2],"threshold":[0.6971153914928436,5.315626621246338,-2.0,-2.0,13.97451639175415,-2.0,-2.0],"value":[7.29661841346008e-05,0.05034269419609939,-0.04231035754061556,1.3334772274417683,-0.004105935410992045,-0.28678799776425384,0.2975942961331015]},{"children_left":[1,2,-1,-1,5,-1,-1],"children_right":[4,3,-1,-1,6,-1,-1],"feature":[2,11,-2,-2,10,-2,-2],"threshold":[1.5,8.776082515716553,-2.0,-2.0,6.3516526222229,-2.0,-2.0],"value":[7.361023546244087e-05,0.02431063864797873,-1.1238982169964715,0.6950672807090968,-0.00862495517639156,-0.6797915542012414,0.11200601642545394]},{"children_left":[1,2,-1,-1,5,-1,-1],"children_right":[4,3,-1,-1,6,-1,-1],"feature":[2,11,-2,-2,11,-2,-2],"threshold":[6.0,13.83067512512207,-2.0,-2.0,14.635393619537354,-2.0,-2.0],"value":[6.508794717089004e-05,0.009106359514872908,-0.1779828634952518,0.9311285935053417,-0.02268160321919056,-0.705092747453014,1.0729508674868937]},{"children_left":[1,2,-1,-1,5,-1,-1],"children_right":[4,3,-1,-1,6,-1,-1],"feature":[2,7,-2,-2,11,-2,-2],"threshold":[3.0,0.04941176436841488,-2.0,-2.0,14.635393619537354,-2.0,-2.0],"value":[7.379611479744596e-05,0.016828838610297943,0.8484230409019918,-0.15187609599753263,-0.011719176103189446,-0.320778526341776,1.0622742549992998]},{"children_left":[1,2,-1,-1,5,-1,-1],"children_right":[4,3,-1,-1,6,-1,-1],"feature":[8,5,-2,-2,2,-2,-2],"threshold":[0.6971153914928436,6.586361885070801,-2.0,-2.0,6.0,-2.0,-2.0],"value":[8.43253748276512e-05,0.049385922809297,0.8809792045723357,-0.023345011489505994,-0.004014095927793266,0.1315593501540974,-0.46900173621626623]},{"children_left":[1,2,-1,-1,5,-1,-1],"children_right":[4,3,-1,-1,6,-1,-1],"feature":[10,2,-2,-2,3,-2,-2],"threshold":[6.9002110958099365,1.5,-2.0,-2.0,0.22794117778539658,-2.0,-2.0],"value":[7.901688991904394e-05,-0.009195082500012363,0.42671885521789193,-0.29988459150312274,0.01973749517421027,0.9385742376737473,0.3047380178854781]},{"children_left":[1,2,-1,-1,5,-1,-1],"children_right":[4,3,-1,-1,6,-1,-1],"feature":[10,4,-2,-2,11,-2,-2],"threshold":[6.005858421325684,7.278777599334717,-2.0,-2.0,11.436939716339111,-2.0,-2.0],"value":[7.565359009632352e-05,-0.02166260215177134,-0.8442760240521454,0.00420899423308704,0.008151785754257682,1.1161730706763453,0.06199546915389161]},{"children_left":[1,2,-1,-1,5,-1,-1],"children_right":[4,3,-1,-1,6,-1,-1],"feature":[2,11,-2,-2,8,-2,-2],"threshold":[6.0,13.83067512512207,-2.0,-2.0,0.8497316837310791,-2.0,-2.0],"value":[7.031840684154153e-05,0.008124229894752772,-0.18357604761861374,0.9124203830519743,-0.020192300177824064,0.9430266296180772,-0.5504242129811537]},{"children_left":[1,2,-1,-1,5,-1,-1],"children_right":[4,3,-1,-1,6,-1,-1],"feature":[2,9,-2,-2,11,-2,-2],"threshold":[3.0,7.827758550643921,-2.0,-2.0,14.635393619537354,-2.0,-2.0],"value":[7.549828813276716e-05,0.015524835502997991,-0.24879500068687116,0.9440315045219423,-0.010798458290022366,-0.3161000352478083,1.0628333867736923]},{"children_left":[1,2,-1,-1,5,-1,-1],"children_right":[4,3,-1,-1,6,-1,-1],"feature":[2,11,-2,-2,10,-2,-2],"threshold":[1.5,8.776082515716553,-2.0,-2.0,6.3516526222229,-2.0,-2.0],"value":[8.881757761747902e-05,0.02111225739720553,-1.1112367066084625,0.648187303300395,-0.007456404688921806,-0.6458483878078177,0.10915935177485664]}]}},{"seed":7,"features":["gpu_is_l4","gpu_is_l40s","tp","freq_norm","log_il","log_ol","log_rate","decode_frac","prefill_frac","log_d_prefill","log_d_decode","log_kv_pressure"],"model":{"kind":"gbdt_binary","init_raw":0.4956826436634273,"learning_rate":0.06,"trees":[{"children_left":[1,2,-1,-1,5,-1,-1],"children_right":[4,3,-1,-1,6,-1,-1],"feature":[11,2,-2,-2,9,-2,-2],"threshold":[14.523821830749512,3.0,-2.0,-2.0,10.241544246673584,-2.0,-2.0],"value":[-7.09376637178437e-17,-0.1868036784370942,0.7959634914285914,-1.7514041669135352,0.3785557986870889,1.6091549295774648,1.6091549295774634]},{"children_left":[1,2,-1,-1,5,-1,-1],"children_right":[4,3,-1,-1,6,-1,-1],"feature":[11,2,-2,-2,2,-2,-2],"threshold":[13.97451639175415,3.0,-2.0,-2.0,6.0,-2.0,-2.0],"value":[0.00023331803921150494,-0.25346705696191707,0.49271587920591253,-2.003062963044432,0.25062455771423986,1.5766324966195726,-0.14342586222139853]},{"children_left":[1,2,-1,-1,5,-1,-1],"children_right":[4,3,-1,-1,6,-1,-1],"feature":[11,2,-2,-2,2,-2,-2],"threshold":[14.523821830749512,3.0,-2.0,-2.0,6.0,-2.0,-2.0],"value":[0.00042242315373376373,-0.16752786437415518,0.7217020451633289,-1.510818999091627,0.3407720124486591,1.5031686437472846,1.5578716350910815]},{"children_left":[1,2,-1,-1,5,-1,-1],"children_right":[4,3,-1,-1,6,-1,-1],"feature":[11,2,-2,-2,2,-2,-2],"threshold":[13.97451639175415,3.0,-2.0,-2.0,6.0,-2.0,-2.0],"value":[0.0005724335445723159,-0.22806508420661437,0.42931269717956183,-1.736090591731569,0.22622772280335268,1.5019163472761934,-0.150985995110955]},{"children_left":[1,2,-1,-1,5,-1,-1],"children_right":[4,3,-1,-1,6,-1,-1],"feature":[11,2,-2,-2,2,-2,-2],"threshold":[14.523821830749512,3.0,-2.0,-2.0,6.0,-2.0,-2.0],"value":[0.0006833526064942744,-0.1504624185778771,0.6553881818184241,-1.3316150305371401,0.3069787564635662,1.4201535712528908,1.5127127531039812]},{"children_left":[1,2,-1,-1,5,-1,-1],"children_right":[4,3,-1,-1,6,-1,-1],"feature":[11,2,-2,-2,2,-2,-2],"threshold":[13.83067512512207,3.0,-2.0,-2.0,6.0,-2.0,-2.0],"value":[0.0007805402743699733,-0.22108183034476175,0.2884363933615485,-1.5957105105807186,0.19107712645582164,1.3203263776783283,-0.1897795594247853]},{"children_left":[1,2,-1,-1,5,-1,-1],"children_right":[4,3,-1,-1,6,-1,-1],"feature":[11,2,-2,-2,2,-2,-2],"threshold":[14.523821830749512,3.0,-2.0,-2.0,6.0,-2.0,-2.0],"value":[0.0008272028396710008,-0.13590669547300754,0.5973685209624517,-1.1964081040025951,0.27791708948655597,1.356449114503009,1.4735889546818326]},{"children_left":[1,2,-1,-1,5,-1,-1],"children_right":[4,3,-1,-1,6,-1,-1],"feature":[11,10,-2,-2,2,-2,-2],"threshold":[13.97451639175415,6.9002110958099365,-2.0,-2.0,6.0,-2.0,-2.0],"value":[0.0008914999117203313,-0.1862982445787528,-1.1150100867481187,1.5140210391606115,0.18563963903927427,1.3999274209715085,-0.16782891019268845]},{"children_left":[1,2,-1,-1,5,-1,-1],"children_right":[4,3,-1,-1,6,-1,-1],"feature":[11,10,-2,-2,2,-2,-2],"threshold":[13.83067512512207,6.9002110958099365,-2.0,-2.0,6.0,-2.0,-2.0],"value":[0.0009709383136593911,-0.18863962732916967,-1.1080764828511318,1.427648026530439,0.16360439095852516,1.2435028798119705,-0.1850805874711271]},{"children_left":[1,2,-1,-1,5,-1,-1],"children_right":[4,3,-1,-1,6,-1,-1],"feature":[11,2,-2,-2,2,-2,-2],"threshold":[14.523821830749512,3.0,-2.0,-2.0,6.0,-2.0,-2.0],"value":[0.0010194458835220666,-0.1177456294937587,0.5893700430382885,-1.086019574163882,0.2416956913500646,1.2803948331930672,1.4427914952230607]},{"children_left":[1,2,-1,-1,5,-1,-1],"children_right":[4,3,-1,-1,6,-1,-1],"feature":[10,11,-2,-2,11,-2,-2],"threshold":[5.315626621246338,11.89508056640625,-2.0,-2.0,14.523821830749512,-2.0,-2.0],"value":[0.0010531358444166616,-0.299598259373018,-1.7345824713590814,-0.34461501930335076,0.08635030134149808,-0.07684193169590062,1.3041890943594998]},{"children_left":[1,2,-1,-1,5,-1,-1],"children_right":[4,3,-1,-1,6,-1,-1],"feature":[10,11,-2,-2,2,-2,-2],"threshold":[5.315626621246338,11.89508056640625,-2.0,-2.0,3.0,-2.0,-2.0],"value":[0.0010757249281000314,-0.2816648954516797,-1.64065360807478,-0.32373864157285515,0.08129146273247616,1.176894121789591,-0.1055314155519919]},{"children_left":[1,2,-1,-1,5,-1,-1],"children_right":[4,3,-1,-1,6,-1,-1],"feature":[11,2,-2,-2,2,-2,-2],"threshold":[14.523821830749512,3.0,-2.0,-2.0,6.0,-2.0,-2.0],"value":[0.0010725136647745698,-0.10158152586877832,0.5672400277304942,-0.9785923272067323,0.20909990503740514,1.2293613165464659,1.3778933615039075]},{"children_left":[1,2,-1,-1,5,-1,-1],"children_right":[4,3,-1,-1,6,-1,-1],"feature":[11,10,-2,-2,2,-2,-2],"threshold":[13.83067512512207,6.9002110958099365,-2.0,-2.0,6.0,-2.0,-2.0],"value":[0.001088679131826486,-0.1508094613691389,-0.9443773420122005,1.4113696949086187,0.1313752955777765,1.1847190138151582,-0.2492458561994616]},{"children_left":[1,2,-1,-1,5,-1,-1],"children_right":[4,3,-1,-1,6,-1,-1],"feature":[11,2,-2,-2,2,-2,-2],"threshold":[13.97451639175415,3.0,-2.0,-2.0,6.0,-2.0,-2.0],"value":[0.0011064985867366025,-0.13264957999276486,0.3706447142006396,-1.1399577679814985,0.13311793266302696,1.3005148890115954,-0.20834276431039178]},{"children_left":[1,2,-1,-1,5,-1,-1],"children_right":[4,3,-1,-1,6,-1,-1],"feature":[10,11,-2,-2,11,-2,-2],"threshold":[5.315626621246338,11.293100357055664,-2.0,-2.0,14.523821830749512,-2.0,-2.0],"value":[0.0010991401217032794,-0.2388008916734959,-1.789114344434984,-0.5203258247310716,0.06916066599618388,-0.0666279478758493,1.2427958984562764]},{"children_left":[1,2,-1,-1,5,-1,-1],"children_right":[4,3,-1,-1,6,-1,-1],"feature":[11,2,-2,-2,2,-2,-2],"threshold":[14.523821830749512,6.0,-2.0,-2.0,6.0,-2.0,-2.0],"value":[0.0010967302621008351,-0.0833518973281868,0.05802728896209891,-1.3912741529093122,0.17223103518016744,1.1703682438759198,1.331897439833482]},{"children_left":[1,2,-1,-1,5,-1,-1],"children_right":[4,3,-1,-1,6,-1,-1],"feature":[10,9,-2,-2,2,-2,-2],"threshold":[5.315626621246338,7.278777599334717,-2.0,-2.0,3.0,-2.0,-2.0],"value":[0.0010762606359597858,-0.21961642403763235,-1.8977954890348159,-0.587942760091193,0.06368851106301814,1.092445436752595,-0.09191170359259818]},{"children_left":[1,2,-1,-1,5,-1,-1],"children_right":[4,3,-1,-1,6,-1,-1],"feature":[11,10,-2,-2,2,-2,-2],"threshold":[12.588224411010742,6.586361885070801,-2.0,-2.0,6.0,-2.0,-2.0],"value":[0.0010577492971149513,-0.16622478847340647,-1.0849792482467369,1.297568946850296,0.07569964115041712,0.8848277970488112,-0.5035160827228023]},{"children_left":[1,2,-1,-1,5,-1,-1],"children_right":[4,3,-1,-1,6,-1,-1],"feature":[11,2,-2,-2,2,-2,-2],"threshold":[14.523821830749512,3.0,-2.0,-2.0,6.0,-2.0,-2.0],"value":[0.001027565413822622,-0.0752978658279259,0.5358572287123747,-0.8261135845152157,0.1557002936255787,1.1447629225098737,1.3175508064407728]},{"children_left":[1,2,-1,-1,5,-1,-1],"children_right":[4,3,-1,-1,6,-1,-1],"feature":[11,10,-2,-2,2,-2,-2],"threshold":[13.97451639175415,6.9002110958099365,-2.0,-2.0,6.0,-2.0,-2.0],"value":[0.0010245036831559098,-0.10301961939601127,-0.7383392454097463,1.4135729485682267,0.10371152950476833,1.2607603079460423,-0.2267624358016711]},{"children_left":[1,2,-1,-1,5,-1,-1],"children_right":[4,3,-1,-1,6,-1,-1],"feature":[11,10,-2,-2,2,-2,-2],"threshold":[12.588224411010742,6.586361885070801,-2.0,-2.0,6.0,-2.0,-2.0],"value":[0.0010442160265030928,-0.14670118341786734,-0.9929477148584674,1.2061961042805802,0.06696858729756715,0.8452444542180619,-0.46388457601818894]},{"children_left":[1,2,-1,-1,5,-1,-1],"children_right":[4,3,-1,-1,6,-1,-1],"feature":[11,2,-2,-2,2,-2,-2],"threshold":[14.523821830749512,3.0,-2.0,-2.0,6.0,-2.0,-2.0],"value":[0.0010077042613566801,-0.06715727093395611,0.5230559351895405,-0.7803980094539421,0.13914334935914258,1.1191344816314972,1.3058282280630735]},{"children_left":[1,2,-1,-1,5,-1,-1],"children_right":[4,3,-1,-1,6,-1,-1],"feature":[10,2,-2,-2,11,-2,-2],"threshold":[6.9002110958099365,3.0,-2.0,-2.0,13.97451639175415,-2.0,-2.0],"value":[0.0009990960774960208,-0.061277673822912146,0.4625381183683669,-0.7604738148577852,0.13636457509713393,1.3426427619935137,0.8314307805885968]},{"children_left":[1,2,-1,-1,5,-1,-1],"children_right":[4,3,-1,-1,6,-1,-1],"feature":[11,10,-2,-2,2,-2,-2],"threshold":[12.588224411010742,6.586361885070801,-2.0,-2.0,6.0,-2.0,-2.0],"value":[0.0009611538802989022,-0.1339370402258971,-0.9422690055268859,1.1242369150196596,0.06115306960489898,0.8174917425801447,-0.43634714007566966]},{"children_left":[1,2,-1,-1,5,-1,-1],"children_right":[4,3,-1,-1,6,-1,-1],"feature":[11,2,-2,-2,2,-2,-2],"threshold":[14.523821830749512,6.0,-2.0,-2.0,6.0,-2.0,-2.0],"value":[0.0009252871972482391,-0.06116081248136342,0.06865290375922316,-1.2008741963062137,0.12674215144661996,1.1031459138025004,1.2892936020999417]},{"children_left":[1,2,-1,-1,5,-1,-1],"children_right":[4,3,-1,-1,6,-1,-1],"feature":[11,10,-2,-2,2,-2,-2],"threshold":[13.97451639175415,6.9002110958099365,-2.0,-2.0,6.0,-2.0,-2.0],"value":[0.000895579979679813,-0.08406838762118167,-0.6447145784363661,1.277674172921698,0.08475132191618216,1.2306214637554347,-0.18170061565257742]},{"children_left":[1,2,-1,-1,5,-1,-1],"children_right":[4,3,-1,-1,6,-1,-1],"feature":[11,2,-2,-2,2,-2,-2],"threshold":[14.523821830749512,3.0,-2.0,-2.0,6.0,-2.0,-2.0],"value":[0.0009103033034176819,-0.05566309417293402,0.4827748810880911,-0.7039787879583699,0.11555573130185257,1.0896868957544767,1.2707073361895165]},{"children_left":[1,2,-1,-1,5,-1,-1],"children_right":[4,3,-1,-1,6,-1,-1],"feature":[11,10,-2,-2,2,-2,-2],"threshold":[11.89508056640625,6.005858421325684,-2.0,-2.0,3.0,-2.0,-2.0],"value":[0.0008989571231381872,-0.1553331892495767,-1.2565783243199014,0.9505071938775922,0.04027801867461702,1.173823214831274,-0.18509283597192924]},{"children_left":[1,2,-1,-1,5,-1,-1],"children_right":[4,3,-1,-1,6,-1,-1],"feature":[11,10,-2,-2,2,-2,-2],"threshold":[13.97451639175415,6.9002110958099365,-2.0,-2.0,6.0,-2.0,-2.0],"value":[0.0008814688361416552,-0.07475710979774508,-0.6016260011132132,1.2413868331372766,0.07553345731393402,1.226171670893638,-0.18094645850824922]},{"children_left":[1,2,-1,-1,5,-1,-1],"children_right":[4,3,-1,-1,6,-1,-1],"feature":[11,2,-2,-2,2,-2,-2],"threshold":[14.523821830749512,6.0,-2.0,-2.0,6.0,-2.0,-2.0],"value":[0.0008909855992269991,-0.0499404653115383,0.08467312979499596,-1.1225534518212665,0.10390041592170514,1.0754440765177036,1.2564154738698017]},{"children_left":[1,2,-1,-1,5,-1,-1],"children_right":[4,3,-1,-1,6,-1,-1],"feature":[11,10,-2,-2,2,-2,-2],"threshold":[11.89508056640625,6.005858421325684,-2.0,-2.0,3.0,-2.0,-2.0],"value":[0.0008560045150448328,-0.13988411808532622,-1.1866067285620574,0.8989250974733399,0.03633022719787821,1.1589388047481857,-0.17679821889394257]},{"children_left":[1,2,-1,-1,5,-1,-1],"children_right":[4,3,-1,-1,6,-1,-1],"feature":[11,10,-2,-2,2,-2,-2],"threshold":[12.588224411010742,6.586361885070801,-2.0,-2.0,6.0,-2.0,-2.0],"value":[0.0008370340452173891,-0.10018700384164791,-0.7914445580265128,1.011773151122967,0.04591421550739457,0.7327019505391926,-0.36958516647288203]},{"children_left":[1,2,-1,-1,5,-1,-1],"children_right":[4,3,-1,-1,6,-1,-1],"feature":[11,2,-2,-2,2,-2,-2],"threshold":[14.523821830749512,3.0,-2.0,-2.0,6.0,-2.0,-2.0],"value":[0.0007993857158734208,-0.045920669956275806,0.441995685447211,-0.6305481806176984,0.09547711442897039,1.0657486383177215,1.2457287570989934]},{"children_left":[1,2,-1,-1,5,-1,-1],"children_right":[4,3,-1,-1,6,-1,-1],"feature":[10,4,-2,-2,4,-2,-2],"threshold":[6.9002110958099365,7.278777599334717,-2.0,-2.0,4.178159952163696,-2.0,-2.0],"value":[0.0007875845705429512,-0.04246980262267666,-0.8491383174744199,0.16008707136804134,0.09481232201136013,1.5699034807985517,0.7515373966317744]},{"children_left":[1,2,-1,-1,5,-1,-1],"children_right":[4,3,-1,-1,6,-1,-1],"feature":[11,10,-2,-2,2,-2,-2],"threshold":[11.89508056640625,6.005858421325684,-2.0,-2.0,3.0,-2.0,-2.0],"value":[0.0007514078395113994,-0.12216007910622921,-1.1042210873438176,0.8463322356172779,0.03173183742583504,1.132598822521846,-0.16732541043532256]},{"children_left":[1,2,-1,-1,5,-1,-1],"children_right":[4,3,-1,-1,6,-1,-1],"feature":[11,2,-2,-2,2,-2,-2],"threshold":[14.523821830749512,6.0,-2.0,-2.0,6.0,-2.0,-2.0],"value":[0.0007349130985879143,-0.041577684284175825,0.09024150295563281,-1.0583142223174622,0.0864809713709436,1.0584379010646618,1.224337029641253]},{"children_left":[1,2,-1,-1,5,-1,-1],"children_right":[4,3,-1,-1,6,-1,-1],"feature":[11,10,-2,-2,2,-2,-2],"threshold":[13.97451639175415,6.9002110958099365,-2.0,-2.0,6.0,-2.0,-2.0],"value":[0.0007049840174170925,-0.057736042774212716,-0.519694067794495,1.1692536297018121,0.058383736546547514,1.2187229479528103,-0.19192830355601107]},{"children_left":[1,2,-1,-1,5,-1,-1],"children_right":[4,3,-1,-1,6,-1,-1],"feature":[11,10,-2,-2,2,-2,-2],"threshold":[11.89508056640625,6.005858421325684,-2.0,-2.0,3.0,-2.0,-2.0],"value":[0.0007137113350651928,-0.11026639770508019,-1.045705419656718,0.801409537585419,0.028686779915047058,1.1186394327082025,-0.16154138267559112]},{"children_left":[1,2,-1,-1,5,-1,-1],"children_right":[4,3,-1,-1,6,-1,-1],"feature":[11,2,-2,-2,2,-2,-2],"threshold":[14.523821830749512,6.0,-2.0,-2.0,6.0,-2.0,-2.0],"value":[0.0006967347976556137,-0.03772074528262352,0.08835441317791658,-1.0210064807222436,0.07854937654974478,1.0500368679790628,1.212929997047692]},{"children_left":[1,2,-1,-1,5,-1,-1],"children_right":[4,3,-1,-1,6,-1,-1],"feature":[11,7,-2,-2,2,-2,-2],"threshold":[10.508806705474854,0.8705882430076599,-2.0,-2.0,3.0,-2.0,-2.0],"value":[0.0006674404386383932,-0.19628913523570823,-1.5580539706723906,0.8596577871063416,0.014999961203673034,0.8391480928511783,-0.21771793188256378]},{"children_left":[1,2,-1,-1,5,-1,-1],"children_right":[4,3,-1,-1,6,-1,-1],"feature":[10,4,-2,-2,9,-2,-2],"threshold":[6.9002110958099365,7.278777599334717,-2.0,-2.0,7.5017454624176025,-2.0,-2.0],"value":[0.0006374175219778748,-0.03511748525324354,-0.7840562949750324,0.1639145307043576,0.07835467147089684,1.1463194150021772,0.6799345644597669]},{"children_left":[1,2,-1,-1,5,-1,-1],"children_right":[4,3,-1,-1,6,-1,-1],"feature":[11,10,-2,-2,2,-2,-2],"threshold":[12.588224411010742,7.043922185897827,-2.0,-2.0,6.0,-2.0,-2.0],"value":[0.0006047692913396103,-0.0748191592224768,-0.6444410116180019,1.162111571232175,0.03425911714085894,0.6640496018006737,-0.34703261422453074]},{"children_left":[1,2,-1,-1,5,-1,-1],"children_right":[4,3,-1,-1,6,-1,-1],"feature":[11,2,-2,-2,2,-2,-2],"threshold":[14.523821830749512,6.0,-2.0,-2.0,6.0,-2.0,-2.0],"value":[0.000577970128952959,-0.034454211553395224,0.08485574123729679,-0.9899691386037637,0.07157033830642628,1.0436854028545561,1.1999939074909964]},{"children_left":[1,2,-1,-1,5,-1,-1],"children_right":[4,3,-1,-1,6,-1,-1],"feature":[11,2,-2,-2,2,-2,-2],"threshold":[13.97451639175415,3.0,-2.0,-2.0,6.0,-2.0,-2.0],"value":[0.0005546343280068654,-0.047572597815090545,0.3283364138449632,-0.7354382759729771,0.04805411996488995,1.207260684309085,-0.17839529790636016]},{"children_left":[1,2,-1,-1,5,-1,-1],"children_right":[4,3,-1,-1,6,-1,-1],"feature":[10,4,-2,-2,9,-2,-2],"threshold":[6.9002110958099365,7.278777599334717,-2.0,-2.0,7.5017454624176025,-2.0,-2.0],"value":[0.0005442780328479812,-0.031298357384088434,-0.7360586798119778,0.1602026373843095,0.06975778418216116,1.1245576879722732,0.632065441100319]},{"children_left":[1,2,-1,-1,5,-1,-1],"children_right":[4,3,-1,-1,6,-1,-1],"feature":[11,2,-2,-2,2,-2,-2],"threshold":[14.523821830749512,3.0,-2.0,-2.0,6.0,-2.0,-2.0],"value":[0.0005160536823706822,-0.031039360430485913,0.4065508872592227,-0.5308493088278267,0.06446278691769612,1.0373044957033883,1.1840568802705704]},{"children_left":[1,2,-1,-1,5,-1,-1],"children_right":[4,3,-1,-1,6,-1,-1],"feature":[11,5,-2,-2,2,-2,-2],"threshold":[10.508806705474854,5.550044059753418,-2.0,-2.0,3.0,-2.0,-2.0],"value":[0.0005108702852630792,-0.16636204315418615,-1.4898040049760664,0.8961272680486255,0.012654204361842718,0.7887424510933845,-0.20240803082748812]},{"children_left":[1,2,-1,-1,5,-1,-1],"children_right":[4,3,-1,-1,6,-1,-1],"feature":[11,10,-2,-2,2,-2,-2],"threshold":[11.89508056640625,6.005858421325684,-2.0,-2.0,3.0,-2.0,-2.0],"value":[0.00048592806439787473,-0.08667278600847374,-0.9507466032690863,0.7619957684459627,0.022454699830710693,1.0591842485191238,-0.13157806705305117]},{"children_left":[1,2,-1,-1,5,-1,-1],"children_right":[4,3,-1,-1,6,-1,-1],"feature":[10,4,-2,-2,9,-2,-2],"threshold":[6.9002110958099365,7.278777599334717,-2.0,-2.0,7.5017454624176025,-2.0,-2.0],"value":[0.00047599523553695496,-0.028622879309922397,-0.7118632889270139,0.15362346906833024,0.06372563226837558,1.0993776764402523,0.6025836908207737]},{"children_left":[1,2,-1,-1,5,-1,-1],"children_right":[4,3,-1,-1,6,-1,-1],"feature":[11,2,-2,-2,2,-2,-2],"threshold":[14.523821830749512,6.0,-2.0,-2.0,6.0,-2.0,-2.0],"value":[0.0004506879834915776,-0.028401055144668477,0.0942673590831761,-0.9408691872023488,0.058918458825988125,1.0339179193018553,1.1713990993403032]},{"children_left":[1,2,-1,-1,5,-1,-1],"children_right":[4,3,-1,-1,6,-1,-1],"feature":[11,10,-2,-2,2,-2,-2],"threshold":[11.89508056640625,6.005858421325684,-2.0,-2.0,6.0,-2.0,-2.0],"value":[0.0004325112897958647,-0.07912914246239691,-0.9036806603762328,0.7272603068063759,0.020486407578019825,0.485280314596834,-0.366446872905322]},{"children_left":[1,2,-1,-1,5,-1,-1],"children_right":[4,3,-1,-1,6,-1,-1],"feature":[10,4,-2,-2,4,-2,-2],"threshold":[6.9002110958099365,7.278777599334717,-2.0,-2.0,4.178159952163696,-2.0,-2.0],"value":[0.00039977981449960525,-0.02632562075292505,-0.6791676121284318,0.15138021276493194,0.05849040743674917,1.493833155521392,0.5966111490609557]},{"children_left":[1,2,-1,-1,5,-1,-1],"children_right":[4,3,-1,-1,6,-1,-1],"feature":[11,2,-2,-2,2,-2,-2],"threshold":[14.523821830749512,6.0,-2.0,-2.0,6.0,-2.0,-2.0],"value":[0.0003804737052422409,-0.026289950594539053,0.08960657635536626,-0.9153396345861783,0.05442782361075933,1.0303484541129346,1.1601625875696613]},{"children_left":[1,-1,3,-1,-1],"children_right":[2,-1,4,-1,-1],"feature":[11,-2,2,-2,-2],"threshold":[9.469138145446777,-2.0,3.0,-2.0,-2.0],"value":[0.0003660659023608558,-1.478052252991938,0.005320502963084988,0.594904862637437,-0.2120475672061161]},{"children_left":[1,2,-1,-1,5,-1,-1],"children_right":[4,3,-1,-1,6,-1,-1],"feature":[11,10,-2,-2,2,-2,-2],"threshold":[12.588224411010742,7.043922185897827,-2.0,-2.0,6.0,-2.0,-2.0],"value":[0.0003479476920578645,-0.05533476544364157,-0.5621834468015832,1.1337616926933056,0.025193715262100902,0.5869435486574451,-0.3213406376174328]},{"children_left":[1,2,-1,-1,5,-1,-1],"children_right":[4,3,-1,-1,6,-1,-1],"feature":[11,2,-2,-2,2,-2,-2],"threshold":[13.97451639175415,3.0,-2.0,-2.0,6.0,-2.0,-2.0],"value":[0.0003327197277270462,-0.03596707057444662,0.3033802591625889,-0.6585503622200239,0.03615903450422027,1.2009302622671119,-0.1977878954615858]},{"children_left":[1,2,-1,-1,5,-1,-1],"children_right":[4,3,-1,-1,6,-1,-1],"feature":[10,4,-2,-2,9,-2,-2],"threshold":[6.9002110958099365,7.278777599334717,-2.0,-2.0,7.5017454624176025,-2.0,-2.0],"value":[0.0003322767829763307,-0.023873839360065496,-0.6481547959895174,0.1470340066115917,0.05294695978833816,1.0587154501516636,0.5361640779660277]},{"children_left":[1,2,-1,-1,5,-1,-1],"children_right":[4,3,-1,-1,6,-1,-1],"feature":[11,2,-2,-2,2,-2,-2],"threshold":[14.523821830749512,3.0,-2.0,-2.0,6.0,-2.0,-2.0],"value":[0.00031468623504886904,-0.024000734523081022,0.3683567993460733,-0.4682458015637669,0.049589644857484266,1.025302889339288,1.1533741913219895]},{"children_left":[1,2,-1,-1,5,-1,-1],"children_right":[4,3,-1,-1,6,-1,-1],"feature":[11,7,-2,-2,2,-2,-2],"threshold":[10.508806705474854,0.8705882430076599,-2.0,-2.0,3.0,-2.0,-2.0],"value":[0.0003164980391490426,-0.12558083817876767,-1.3728480203558022,0.8502957472089328,0.009478041285053787,0.7082357544085799,-0.17683248504176602]},{"children_left":[1,2,-1,-1,5,-1,-1],"children_right":[4,3,-1,-1,6,-1,-1],"feature":[10,4,-2,-2,7,-2,-2],"threshold":[5.315626621246338,7.827758550643921,-2.0,-2.0,0.5833333432674408,-2.0,-2.0],"value":[0.00029857644282009927,-0.06225380666781346,-1.136385236195094,0.07174460676564064,0.018045179516342547,0.09452311955852707,0.967076162016613]},{"children_left":[1,2,-1,-1,5,-1,-1],"children_right":[4,3,-1,-1,6,-1,-1],"feature":[10,4,-2,-2,9,-2,-2],"threshold":[6.9002110958099365,7.278777599334717,-2.0,-2.0,7.5017454624176025,-2.0,-2.0],"value":[0.00027033451589478864,-0.021775755500376665,-0.6216301597241194,0.14029786173282677,0.048189960731818166,1.0154572729568645,0.5050939684229756]},{"children_left":[1,2,-1,-1,5,-1,-1],"children_right":[4,3,-1,-1,6,-1,-1],"feature":[11,2,-2,-2,2,-2,-2],"threshold":[14.523821830749512,6.0,-2.0,-2.0,6.0,-2.0,-2.0],"value":[0.0002560294612699895,-0.022155883007442582,0.09202757782083625,-0.8751153031149252,0.04567354744422412,1.0233532141512227,1.1415324545446233]},{"children_left":[1,2,-1,-1,5,-1,-1],"children_right":[4,3,-1,-1,6,-1,-1],"feature":[11,10,-2,-2,2,-2,-2],"threshold":[11.89508056640625,6.005858421325684,-2.0,-2.0,3.0,-2.0,-2.0],"value":[0.0002477281436321216,-0.06134885056922594,-0.8055160482085221,0.6498448942092729,0.015773441134270285,1.0022903663452407,-0.13339378182984873]},{"children_left":[1,2,-1,-1,5,-1,-1],"children_right":[4,3,-1,-1,6,-1,-1],"feature":[10,4,-2,-2,4,-2,-2],"threshold":[6.9002110958099365,7.278777599334717,-2.0,-2.0,4.178159952163696,-2.0,-2.0],"value":[0.00024810202893875405,-0.020143226330977912,-0.5990110523458738,0.13802712722105867,0.0445709199223688,1.4504934741049902,0.5058066604644428]},{"children_left":[1,2,-1,-1,5,-1,-1],"children_right":[4,3,-1,-1,6,-1,-1],"feature":[11,2,-2,-2,2,-2,-2],"threshold":[14.523821830749512,6.0,-2.0,-2.0,6.0,-2.0,-2.0],"value":[0.00023668536300535344,-0.02043196543271582,0.09351912155134558,-0.858416064957271,0.04212150088281104,1.0216538195517495,1.1311556387130246]},{"children_left":[1,2,-1,-1,5,-1,-1],"children_right":[4,3,-1,-1,6,-1,-1],"feature":[11,10,-2,-2,2,-2,-2],"threshold":[12.588224411010742,7.043922185897827,-2.0,-2.0,6.0,-2.0,-2.0],"value":[0.00022895977846124624,-0.04296667131087835,-0.4941771447097501,1.0528995286231566,0.019502959726552613,0.5426270355453936,-0.33667946788660275]},{"children_left":[1,2,-1,-1,5,-1,-1],"children_right":[4,3,-1,-1,6,-1,-1],"feature":[11,2,-2,-2,2,-2,-2],"threshold":[14.400392055511475,3.0,-2.0,-2.0,3.0,-2.0,-2.0],"value":[0.00021951469203809165,-0.02207061049880973,0.34347343468967145,-0.47141627813869313,0.03515740754735579,1.022997276984994,0.6558163962556588]},{"children_left":[1,-1,3,-1,-1],"children_right":[2,-1,4,-1,-1],"feature":[11,-2,2,-2,-2],"threshold":[9.469138145446777,-2.0,3.0,-2.0,-2.0],"value":[0.00021212860090279523,-1.3412873899728899,0.003964998351905333,0.5230988705808352,-0.18327746478643595]},{"children_left":[1,2,-1,-1,5,-1,-1],"children_right":[4,3,-1,-1,6,-1,-1],"feature":[10,4,-2,-2,9,-2,-2],"threshold":[6.9002110958099365,7.278777599334717,-2.0,-2.0,7.5017454624176025,-2.0,-2.0],"value":[0.00020028668621023286,-0.018718082058148882,-0.5790107224250808,0.1338500496049329,0.041321463193046325,0.9768729260420238,0.461101281863189]},{"children_left":[1,2,-1,-1,5,-1,-1],"children_right":[4,3,-1,-1,6,-1,-1],"feature":[10,11,-2,-2,8,-2,-2],"threshold":[5.315626621246338,11.293100357055664,-2.0,-2.0,0.6971153914928436,-2.0,-2.0],"value":[0.00018978208724249423,-0.05106804440241828,-1.1441829549843394,0.03161561087951703,0.014732030613803532,0.8984697830891161,0.07975201741941668]},{"children_left":[1,2,-1,-1,5,-1,-1],"children_right":[4,3,-1,-1,6,-1,-1],"feature":[11,2,-2,-2,2,-2,-2],"threshold":[14.523821830749512,6.0,-2.0,-2.0,6.0,-2.0,-2.0],"value":[0.00016863414811486353,-0.01831699261757815,0.09292760530575139,-0.833613883964126,0.03762957315673778,1.0187508367301885,1.1192763662768477]},{"children_left":[1,2,-1,-1,5,-1,-1],"children_right":[4,3,-1,-1,6,-1,-1],"feature":[10,4,-2,-2,8,-2,-2],"threshold":[5.315626621246338,7.827758550643921,-2.0,-2.0,0.6971153914928436,-2.0,-2.0],"value":[0.00016439482490448692,-0.04768449379422809,-1.043879912190979,0.08310351220786999,0.013739500865725809,0.8657918661516385,0.07418053124320541]},{"children_left":[1,2,-1,-1,5,-1,-1],"children_right":[4,3,-1,-1,6,-1,-1],"feature":[2,11,-2,-2,11,-2,-2],"threshold":[3.0,11.293100357055664,-2.0,-2.0,14.635393619537354,-2.0,-2.0],"value":[0.0001462900300252621,0.029668035437456355,-0.7989779019584846,1.0088473670024567,-0.021435895059498267,-0.406855718544234,1.095014121478863]},{"children_left":[1,2,-1,-1,5,-1,-1],"children_right":[4,3,-1,-1,6,-1,-1],"feature":[10,2,-2,-2,4,-2,-2],"threshold":[6.9002110958099365,3.0,-2.0,-2.0,4.178159952163696,-2.0,-2.0],"value":[0.00016897919540062925,-0.01659802993104648,0.33423053906785477,-0.45032681428386256,0.03661393653274749,1.4146283252352694,0.44891742286781733]},{"children_left":[1,2,-1,-1,5,-1,-1],"children_right":[4,3,-1,-1,6,-1,-1],"feature":[11,10,-2,-2,2,-2,-2],"threshold":[12.588224411010742,7.043922185897827,-2.0,-2.0,6.0,-2.0,-2.0],"value":[0.00016224250144824393,-0.03639805236847152,-0.45724072272973704,0.9733967879193166,0.01647553863011497,0.5180314741717446,-0.3541950103665721]},{"children_left":[1,2,-1,-1,5,-1,-1],"children_right":[4,3,-1,-1,6,-1,-1],"feature":[11,2,-2,-2,2,-2,-2],"threshold":[13.97451639175415,3.0,-2.0,-2.0,6.0,-2.0,-2.0],"value":[0.00015604399351823244,-0.024220694345364772,0.28607183434716527,-0.5756357242774252,0.024214824875807114,1.2064756271008878,-0.28706905309290154]},{"children_left":[1,-1,3,-1,-1],"children_right":[2,-1,4,-1,-1],"feature":[11,-2,4,-2,-2],"threshold":[9.469138145446777,-2.0,4.178159952163696,-2.0,-2.0],"value":[0.00016339632108854646,-1.2777466733530605,0.0032616277944087792,1.14789999791083,-0.020175148324123246]},{"children_left":[1,2,-1,-1,5,-1,-1],"children_right":[4,3,-1,-1,6,-1,-1],"feature":[11,2,-2,-2,2,-2,-2],"threshold":[14.600897312164307,6.0,-2.0,-2.0,6.0,-2.0,-2.0],"value":[0.00015338203429229942,-0.015968610443885832,0.08660315542484721,-0.7974844655135161,0.0334793799086471,1.015080469609469,1.1093591598160417]},{"children_left":[1,2,-1,-1,5,-1,-1],"children_right":[4,3,-1,-1,6,-1,-1],"feature":[8,10,-2,-2,2,-2,-2],"threshold":[0.9926917254924774,6.9002110958099365,-2.0,-2.0,6.0,-2.0,-2.0],"value":[0.00014972894694416096,-0.021989662762397073,-0.4801801478933454,0.4673035825994999,0.023178649787464294,0.6803509941678194,-0.26843591779104425]},{"children_left":[1,2,-1,-1,5,-1,-1],"children_right":[4,3,-1,-1,6,-1,-1],"feature":[11,3,-2,-2,9,-2,-2],"threshold":[12.588224411010742,0.13970588520169258,-2.0,-2.0,7.266890048980713,-2.0,-2.0],"value":[0.00014324813011812752,-0.03325033061011841,0.9297420442914978,-0.44743595152152127,0.015043547504717354,1.626233961339584,0.12665181051563207]},{"children_left":[1,2,-1,-1,5,-1,-1],"children_right":[4,3,-1,-1,6,-1,-1],"feature":[11,2,-2,-2,2,-2,-2],"threshold":[14.712469100952148,3.0,-2.0,-2.0,6.0,-2.0,-2.0],"value":[0.00013423951433938033,-0.014876099956863181,0.33259384099245415,-0.37987853115715803,0.03147339422110693,1.0135814650897341,1.1031049567194238]},{"children_left":[1,2,-1,-1,5,-1,-1],"children_right":[4,3,-1,-1,6,-1,-1],"feature":[11,5,-2,-2,2,-2,-2],"threshold":[10.508806705474854,5.550044059753418,-2.0,-2.0,3.0,-2.0,-2.0],"value":[0.00014028143384945248,-0.08030039770935764,-1.2447811898482088,0.7129741392970619,0.005993945878542941,0.5969798429197437,-0.15402663254961996]},{"children_left":[1,2,-1,-1,5,-1,-1],"children_right":[4,3,-1,-1,6,-1,-1],"feature":[11,10,-2,-2,2,-2,-2],"threshold":[11.89508056640625,6.005858421325684,-2.0,-2.0,6.0,-2.0,-2.0],"value":[0.00012998102149888746,-0.04244297227433204,-0.6815000771973148,0.5426630857252732,0.010860698016612482,0.3698111100737485,-0.325994467049714]},{"children_left":[1,2,-1,-1,5,-1,-1],"children_right":[4,3,-1,-1,6,-1,-1],"feature":[7,2,-2,-2,10,-2,-2],"threshold":[0.023923445492982864,6.0,-2.0,-2.0,6.9002110958099365,-2.0,-2.0],"value":[0.00011843625136923459,0.021901161859729172,0.658958793973119,-0.2487992908112688,-0.020822896522333028,-0.4704430786066597,0.4512919420092528]},{"children_left":[1,2,-1,-1,5,-1,-1],"children_right":[4,3,-1,-1,6,-1,-1],"feature":[11,2,-2,-2,2,-2,-2],"threshold":[14.712469100952148,6.0,-2.0,-2.0,6.0,-2.0,-2.0],"value":[0.00011340192912619915,-0.014217532280555304,0.07548413602490436,-0.7492252259318202,0.030034068623663854,1.012145818731436,1.100743960787911]},{"children_left":[1,2,-1,-1,5,-1,-1],"children_right":[4,3,-1,-1,6,-1,-1],"feature":[10,9,-2,-2,3,-2,-2],"threshold":[5.315626621246338,7.827758550643921,-2.0,-2.0,0.22794117778539658,-2.0,-2.0],"value":[0.00011235715258926508,-0.03830553854976425,-0.9805752957341305,0.0845097845701704,0.01101181632657157,0.7115234687672866,0.006415254306147602]},{"children_left":[1,2,-1,-1,5,-1,-1],"children_right":[4,3,-1,-1,6,-1,-1],"feature":[10,2,-2,-2,11,-2,-2],"threshold":[7.043922185897827,3.0,-2.0,-2.0,13.504513263702393,-2.0,-2.0],"value":[9.774326859109761e-05,-0.012566938941641941,0.3139051735190104,-0.40009603512601344,0.031954290058946455,1.187646084592078,0.33883335946010407]},{"children_left":[1,2,-1,-1,5,-1,-1],"children_right":[4,3,-1,-1,6,-1,-1],"feature":[4,10,-2,-2,9,-2,-2],"threshold":[7.278777599334717,6.005858421325684,-2.0,-2.0,7.827758550643921,-2.0,-2.0],"value":[9.386946154279887e-05,-0.02593021983875105,-1.173203044453772,0.022190473310524428,0.01594657174658099,-0.48800303362344444,0.39197250181281823]},{"children_left":[1,2,-1,-1,5,-1,-1],"children_right":[4,3,-1,-1,6,-1,-1],"feature":[3,5,-2,-2,10,-2,-2],"threshold":[0.13970588520169258,5.550044059753418,-2.0,-2.0,6.3516526222229,-2.0,-2.0],"value":[7.972173736659261e-05,0.06681340116766528,0.14419673909315053,2.681469138243357,-0.005799197641016845,-0.3840920682890819,0.19961419875299866]},{"children_left":[1,2,-1,-1,5,-1,-1],"children_right":[4,3,-1,-1,6,-1,-1],"feature":[4,10,-2,-2,9,-2,-2],"threshold":[7.278777599334717,6.005858421325684,-2.0,-2.0,7.827758550643921,-2.0,-2.0],"value":[7.605943975879342e-05,-0.024927533891649034,-1.1287590612041007,0.010393264166456596,0.015307121574736094,-0.45333333027437767,0.37412370184356086]},{"children_left":[1,2,-1,-1,5,-1,-1],"children_right":[4,3,-1,-1,6,-1,-1],"feature":[2,11,-2,-2,11,-2,-2],"threshold":[3.0,11.293100357055664,-2.0,-2.0,14.635393619537354,-2.0,-2.0],"value":[6.361016696852175e-05,0.02374791089347665,-0.7047837246447808,0.9444691087368772,-0.017251049076274175,-0.3620595920054562,1.079134524031615]},{"children_left":[1,2,-1,-1,5,-1,-1],"children_right":[4,3,-1,-1,6,-1,-1],"feature":[3,5,-2,-2,11,-2,-2],"threshold":[0.13970588520169258,5.550044059753418,-2.0,-2.0,12.588224411010742,-2.0,-2.0],"value":[8.40978978260283e-05,0.06550731905263407,0.16100429007474348,2.5900690494120697,-0.005679376346764162,-0.40286325608652784,0.14061792074560128]},{"children_left":[1,2,-1,-1,5,-1,-1],"children_right":[4,3,-1,-1,6,-1,-1],"feature":[2,11,-2,-2,11,-2,-2],"threshold":[3.0,11.293100357055664,-2.0,-2.0,14.635393619537354,-2.0,-2.0],"value":[7.986773421516608e-05,0.022669230319403974,-0.674078385064041,0.9256825877257906,-0.01643432536783576,-0.3446285729535119,1.0736584742570225]},{"children_left":[1,2,-1,-1,5,-1,-1],"children_right":[4,3,-1,-1,6,-1,-1],"feature":[3,5,-2,-2,10,-2,-2],"threshold":[0.13970588520169258,5.550044059753418,-2.0,-2.0,6.9002110958099365,-2.0,-2.0],"value":[9.802985959883476e-05,0.06314905140072705,0.16505254377353581,2.492626219990208,-0.005456464895214843,-0.23312155168991616,0.5515624815380614]},{"children_left":[1,2,-1,-1,5,-1,-1],"children_right":[4,3,-1,-1,6,-1,-1],"feature":[2,11,-2,-2,11,-2,-2],"threshold":[3.0,11.293100357055664,-2.0,-2.0,14.635393619537354,-2.0,-2.0],"value":[9.697258043420231e-05,0.021647996486204614,-0.6510215701253566,0.9067978289446197,-0.01565813201734489,-0.32938487840814146,1.0692750693407165]},{"children_left":[1,2,-1,-1,5,-1,-1],"children_right":[4,3,-1,-1,6,-1,-1],"feature":[7,4,-2,-2,9,-2,-2],"threshold":[0.5833333432674408,7.278777599334717,-2.0,-2.0,5.315626621246338,-2.0,-2.0],"value":[0.00011285841834189895,-0.004520536716143781,-0.38146828544940203,0.20151432383444495,0.07110309101456855,-0.057340833144085786,1.5703850245782702]},{"children_left":[1,2,-1,-1,5,-1,-1],"children_right":[4,3,-1,-1,6,-1,-1],"feature":[3,5,-2,-2,10,-2,-2],"threshold":[0.13970588520169258,5.550044059753418,-2.0,-2.0,6.3516526222229,-2.0,-2.0],"value":[0.00010951049589536192,0.06154931154112824,0.1770365870829371,2.4088784494803535,-0.0053030434057084784,-0.353797872970775,0.17341883705999786]},{"children_left":[1,2,-1,-1,5,-1,-1],"children_right":[4,3,-1,-1,6,-1,-1],"feature":[2,11,-2,-2,10,-2,-2],"threshold":[3.0,11.293100357055664,-2.0,-2.0,7.043922185897827,-2.0,-2.0],"value":[0.00010436831663702528,0.021153229120137205,-0.6159891206640373,0.8908518430923494,-0.015283624619255164,-0.37640750092032316,0.5113396221745486]},{"children_left":[1,2,-1,-1,5,-1,-1],"children_right":[4,3,-1,-1,6,-1,-1],"feature":[3,5,-2,-2,10,-2,-2],"threshold":[0.13970588520169258,5.550044059753418,-2.0,-2.0,6.3516526222229,-2.0,-2.0],"value":[0.00010911915942021986,0.059424135120373776,0.18027147969132404,2.3288805592244874,-0.00511625129428281,-0.33915857853875964,0.16102947692404568]},{"children_left":[1,2,-1,-1,5,-1,-1],"children_right":[4,3,-1,-1,6,-1,-1],"feature":[2,11,-2,-2,11,-2,-2],"threshold":[3.0,11.293100357055664,-2.0,-2.0,14.635393619537354,-2.0,-2.0],"value":[0.00010409275075515182,0.02033432844524856,-0.5893180307787462,0.8730463424331514,-0.01468543561681011,-0.3129936689048416,1.064206579275568]},{"children_left":[1,2,-1,-1,5,-1,-1],"children_right":[4,3,-1,-1,6,-1,-1],"feature":[7,4,-2,-2,9,-2,-2],"threshold":[0.5833333432674408,7.278777599334717,-2.0,-2.0,5.315626621246338,-2.0,-2.0],"value":[0.00011762577825163971,-0.004229586314642284,-0.3757645843073794,0.2008848682268353,0.06672312534437637,-0.03823084249389592,1.5210558937848793]},{"children_left":[1,2,-1,-1,5,-1,-1],"children_right":[4,3,-1,-1,6,-1,-1],"feature":[3,5,-2,-2,10,-2,-2],"threshold":[0.13970588520169258,5.550044059753418,-2.0,-2.0,6.9002110958099365,-2.0,-2.0],"value":[0.00011389518177329559,0.05786251229595367,0.19053287570849364,2.2602862426490633,-0.004973482992571176,-0.2151626794103133,0.49391541716923276]},{"children_left":[1,2,-1,-1,5,-1,-1],"children_right":[4,3,-1,-1,6,-1,-1],"feature":[2,9,-2,-2,11,-2,-2],"threshold":[6.0,10.47653865814209,-2.0,-2.0,14.635393619537354,-2.0,-2.0],"value":[0.00011128591590380013,0.010824926807383731,-0.12220499085147403,1.2143147462525041,-0.028033278648222075,-0.738890147783771,1.0678354012816818]},{"children_left":[1,2,-1,-1,5,-1,-1],"children_right":[4,3,-1,-1,6,-1,-1],"feature":[2,11,-2,-2,4,-2,-2],"threshold":[3.0,11.293100357055664,-2.0,-2.0,4.178159952163696,-2.0,-2.0],"value":[0.00012283147342856776,0.019881239193629822,-0.5547356575146377,0.8582562424180082,-0.0143217620492943,1.01270866877867,-0.23207794511674879]},{"children_left":[1,2,-1,-1,5,-1,-1],"children_right":[4,3,-1,-1,6,-1,-1],"feature":[3,5,-2,-2,2,-2,-2],"threshold":[0.13970588520169258,5.550044059753418,-2.0,-2.0,3.0,-2.0,-2.0],"value":[0.00012727632802459542,0.0557848049439551,0.1949422835422042,2.1895678130718967,-0.004775886907188328,0.32308749450774543,-0.24122967589849717]},{"children_left":[1,2,-1,-1,5,-1,-1],"children_right":[4,3,-1,-1,6,-1,-1],"feature":[3,9,-2,-2,11,-2,-2],"threshold":[0.13970588520169258,7.9715588092803955,-2.0,-2.0,12.588224411010742,-2.0,-2.0],"value":[0.0001225751864423226,0.05246833986824664,1.5189727973029763,-0.17233000429822595,-0.0044888374164785295,-0.35941578581586336,0.12755613878219227]},{"children_left":[1,2,-1,-1,5,-1,-1],"children_right":[4,3,-1,-1,6,-1,-1],"feature":[7,2,-2,-2,10,-2,-2],"threshold":[0.023923445492982864,6.0,-2.0,-2.0,6.9002110958099365,-2.0,-2.0],"value":[0.00011103705954944197,0.016181162400222455,0.6644431768287049,-0.37948403981960194,-0.015338353825904445,-0.41648050248620344,0.3751792998521368]},{"children_left":[1,2,-1,-1,5,-1,-1],"children_right":[4,3,-1,-1,6,-1,-1],"feature":[7,4,-2,-2,9,-2,-2],"threshold":[0.5833333432674408,7.278777599334717,-2.0,-2.0,5.315626621246338,-2.0,-2.0],"value":[0.00010541170957619202,-0.0038267140451052452,-0.3519931924245868,0.18981750915013784,0.060351195593802524,-0.06018018800270341,1.4853760748354174]},{"children_left":[1,2,-1,-1,5,-1,-1],"children_right":[4,3,-1,-1,6,-1,-1],"feature":[2,11,-2,-2,10,-2,-2],"threshold":[3.0,11.293100357055664,-2.0,-2.0,7.043922185897827,-2.0,-2.0],"value":[0.00010246263913541149,0.018048149505246643,-0.5437524818827237,0.8311566667563043,-0.013016922077377669,-0.34491081898847475,0.4655907673499866]},{"children_left":[1,2,-1,-1,5,-1,-1],"children_right":[4,3,-1,-1,6,-1,-1],"feature":[3,9,-2,-2,11,-2,-2],"threshold":[0.13970588520169258,7.9715588092803955,-2.0,-2.0,12.588224411010742,-2.0,-2.0],"value":[0.00010511850427115691,0.05215869807151698,1.480383536317507,-0.15791034908303792,-0.004480553981414783,-0.35538052227964884,0.1221720163962795]},{"children_left":[1,2,-1,-1,5,-1,-1],"children_right":[4,3,-1,-1,6,-1,-1],"feature":[2,9,-2,-2,4,-2,-2],"threshold":[6.0,10.47653865814209,-2.0,-2.0,5.550044059753418,-2.0,-2.0],"value":[9.482210748159947e-05,0.009436635951088741,-0.12431117154204603,1.2013731728901653,-0.02444597457691489,0.9963628470159062,-0.5890381498171631]},{"children_left":[1,2,-1,-1,-1],"children_right":[4,3,-1,-1,-1],"feature":[7,4,-2,-2,-2],"threshold":[0.915032684803009,7.278777599334717,-2.0,-2.0,-2.0],"value":[0.00010436408118179821,-0.0019847888761513714,-0.2650900877665086,0.18930823446130635,0.9525748542917298]},{"children_left":[1,2,-1,-1,5,-1,-1],"children_right":[4,3,-1,-1,6,-1,-1],"feature":[2,11,-2,-2,11,-2,-2],"threshold":[3.0,11.293100357055664,-2.0,-2.0,14.635393619537354,-2.0,-2.0],"value":[9.888788017260414e-05,0.01739591775375898,-0.51701723121777,0.8163667083201638,-0.012546289262259843,-0.29590801101521386,1.0605999101992942]},{"children_left":[1,2,-1,-1,5,-1,-1],"children_right":[4,3,-1,-1,6,-1,-1],"feature":[3,5,-2,-2,10,-2,-2],"threshold":[0.13970588520169258,5.550044059753418,-2.0,-2.0,6.3516526222229,-2.0,-2.0],"value":[0.0001097698255892826,0.05067904217093285,0.1875817632140104,2.07371276451437,-0.004345142261976712,-0.3147709233094066,0.1481960115754763]},{"children_left":[1,2,-1,-1,5,-1,-1],"children_right":[4,3,-1,-1,6,-1,-1],"feature":[2,3,-2,-2,4,-2,-2],"threshold":[6.0,0.13970588520169258,-2.0,-2.0,5.550044059753418,-2.0,-2.0],"value":[0.00010480117896799665,0.00909727607322013,0.9013783632880352,0.033143416064234495,-0.02351828763053569,0.962573363795818,-0.5866576045129265]},{"children_left":[1,2,-1,-1,5,-1,-1],"children_right":[4,3,-1,-1,6,-1,-1],"feature":[7,2,-2,-2,8,-2,-2],"threshold":[0.023923445492982864,6.0,-2.0,-2.0,0.9196617603302002,-2.0,-2.0],"value":[9.61160226992719e-05,0.014667181800196386,0.6204258750994671,-0.3314790791790707,-0.013912118887855882,0.33808429158575215,-0.4239617135447247]},{"children_left":[1,2,-1,-1,5,-1,-1],"children_right":[4,3,-1,-1,6,-1,-1],"feature":[2,11,-2,-2,11,-2,-2],"threshold":[3.0,11.293100357055664,-2.0,-2.0,14.635393619537354,-2.0,-2.0],"value":[9.102431260611301e-05,0.016042531125341753,-0.5110919203347745,0.7932806039352764,-0.011570493925492312,-0.28597087339891014,1.0602005144419222]},{"children_left":[1,2,-1,-1,5,-1,-1],"children_right":[4,3,-1,-1,6,-1,-1],"feature":[8,5,-2,-2,4,-2,-2],"threshold":[0.6971153914928436,6.586361885070801,-2.0,-2.0,7.278777599334717,-2.0,-2.0],"value":[0.00010155148240045398,0.0546865301631319,0.8705168763688044,-0.4513427554969085,-0.003461104468789459,-0.3297105181749766,0.1769714525136592]},{"children_left":[1,2,-1,-1,5,-1,-1],"children_right":[4,3,-1,-1,6,-1,-1],"feature":[3,9,-2,-2,11,-2,-2],"threshold":[0.13970588520169258,7.9715588092803955,-2.0,-2.0,12.588224411010742,-2.0,-2.0],"value":[9.593682108155413e-05,0.04635620247648082,1.3464524595358442,-0.17093585084296822,-0.003979372296179807,-0.3547531285583679,0.13119615867433787]}]}},{"seed":11,"features":["gpu_is_l4","gpu_is_l40s","tp","freq_norm","log_il","log_ol","log_rate","decode_frac","prefill_frac","log_d_prefill","log_d_decode","log_kv_pressure"],"model":{"kind":"gbdt_binary","init_raw":0.6032364104113128,"learning_rate":0.06,"trees":[{"children_left":[1,2,-1,-1,5,-1,-1],"children_right":[4,3,-1,-1,6,-1,-1],"feature":[11,2,-2,-2,9,-2,-2],"threshold":[14.523821830749512,3.0,-2.0,-2.0,10.241544246673584,-2.0,-2.0],"value":[9.901989138548693e-17,-0.18964899155210657,0.8829661428032455,-1.9134641172910392,0.3536036036036028,1.5470383275261324,1.5470383275261326]},{"children_left":[1,2,-1,-1,-1],"children_right":[4,3,-1,-1,-1],"feature":[11,2,-2,-2,-2],"threshold":[14.523821830749512,3.0,-2.0,-2.0,-2.0],"value":[0.0002956398343106808,-0.17797635043416835,0.8439278208176675,-1.7427266484691302,1.4985463524442861]},{"children_left":[1,2,-1,-1,-1],"children_right":[4,3,-1,-1,-1],"feature":[11,2,-2,-2,-2],"threshold":[14.523821830749512,3.0,-2.0,-2.0,-2.0],"value":[0.0005245745343347045,-0.16708445969362992,0.8070040070799971,-1.6006064535274074,1.4556768006769591]},{"children_left":[1,2,-1,-1,5,-1,-1],"children_right":[4,3,-1,-1,6,-1,-1],"feature":[11,2,-2,-2,2,-2,-2],"threshold":[13.83067512512207,3.0,-2.0,-2.0,6.0,-2.0,-2.0],"value":[0.0007025876020991901,-0.24003329569636536,0.45472522345480715,-1.839566733731166,0.1998297997131737,1.4028199317577534,-0.37639583878980654]},{"children_left":[1,2,-1,-1,5,-1,-1],"children_right":[4,3,-1,-1,6,-1,-1],"feature":[11,2,-2,-2,2,-2,-2],"threshold":[14.523821830749512,3.0,-2.0,-2.0,6.0,-2.0,-2.0],"value":[0.0008324468998644474,-0.15021808271839804,0.7397173989076686,-1.3997083132362091,0.2824685956719799,1.3838584956743327,1.4271037380860816]},{"children_left":[1,2,-1,-1,5,-1,-1],"children_right":[4,3,-1,-1,6,-1,-1],"feature":[11,10,-2,-2,2,-2,-2],"threshold":[13.83067512512207,6.9002110958099365,-2.0,-2.0,6.0,-2.0,-2.0],"value":[0.0009447220007632088,-0.21624355265187206,-1.362163507100965,1.5110420688027872,0.18059428251590606,1.3494530620781116,-0.3603500505919136]},{"children_left":[1,2,-1,-1,5,-1,-1],"children_right":[4,3,-1,-1,6,-1,-1],"feature":[10,11,-2,-2,2,-2,-2],"threshold":[5.315626621246338,12.6793851852417,-2.0,-2.0,6.0,-2.0,-2.0],"value":[0.0010602866429467643,-0.3600522781696768,-1.8111060461536734,0.7897892564169677,0.0980448040497657,0.8939683345400535,-0.6199807038316177]},{"children_left":[1,2,-1,-1,5,-1,-1],"children_right":[4,3,-1,-1,6,-1,-1],"feature":[11,2,-2,-2,2,-2,-2],"threshold":[14.523821830749512,3.0,-2.0,-2.0,6.0,-2.0,-2.0],"value":[0.0010866494608096583,-0.13206273534592122,0.6985506842614039,-1.2404930789042485,0.24934582500368185,1.308782513811428,1.4158067258754072]},{"children_left":[1,2,-1,-1,5,-1,-1],"children_right":[4,3,-1,-1,6,-1,-1],"feature":[11,10,-2,-2,2,-2,-2],"threshold":[13.83067512512207,6.9002110958099365,-2.0,-2.0,6.0,-2.0,-2.0],"value":[0.0011499856085218521,-0.18846807596068735,-1.198536805325263,1.4660024366345816,0.15799455505465781,1.2842170231514025,-0.3089861915474923]},{"children_left":[1,2,-1,-1,5,-1,-1],"children_right":[4,3,-1,-1,6,-1,-1],"feature":[11,2,-2,-2,2,-2,-2],"threshold":[14.523821830749512,3.0,-2.0,-2.0,6.0,-2.0,-2.0],"value":[0.0012206301029360463,-0.11909350924796351,0.6745826009708175,-1.1404582342693357,0.22554828347332348,1.2642927044853214,1.3890902488829753]},{"children_left":[1,2,-1,-1,5,-1,-1],"children_right":[4,3,-1,-1,6,-1,-1],"feature":[10,11,-2,-2,2,-2,-2],"threshold":[5.315626621246338,12.6793851852417,-2.0,-2.0,6.0,-2.0,-2.0],"value":[0.0012571835405453392,-0.30441433834391834,-1.5578174806401188,0.7705692801494889,0.08335182084665858,0.8277800405964871,-0.5329905331161122]},{"children_left":[1,2,-1,-1,5,-1,-1],"children_right":[4,3,-1,-1,6,-1,-1],"feature":[11,2,-2,-2,2,-2,-2],"threshold":[14.523821830749512,3.0,-2.0,-2.0,6.0,-2.0,-2.0],"value":[0.0012302889028803258,-0.10956858991792258,0.6347788316875338,-1.0572119182672175,0.20781658554295843,1.2331152236344605,1.3696088691264743]},{"children_left":[1,2,-1,-1,5,-1,-1],"children_right":[4,3,-1,-1,6,-1,-1],"feature":[10,11,-2,-2,2,-2,-2],"threshold":[5.315626621246338,12.6793851852417,-2.0,-2.0,6.0,-2.0,-2.0],"value":[0.0012523843759650016,-0.2788048065804762,-1.4539121847120768,0.7287618737358553,0.07646774423283781,0.7913991657962759,-0.4924249722303296]},{"children_left":[1,2,-1,-1,5,-1,-1],"children_right":[4,3,-1,-1,6,-1,-1],"feature":[11,10,-2,-2,2,-2,-2],"threshold":[13.83067512512207,6.9002110958099365,-2.0,-2.0,6.0,-2.0,-2.0],"value":[0.0012117523217418942,-0.15339329609007327,-1.0354972893392327,1.4489458490073321,0.12909494051423148,1.2133182175697943,-0.2529250426057269]},{"children_left":[1,2,-1,-1,5,-1,-1],"children_right":[4,3,-1,-1,6,-1,-1],"feature":[11,2,-2,-2,2,-2,-2],"threshold":[14.523821830749512,3.0,-2.0,-2.0,6.0,-2.0,-2.0],"value":[0.0012458337975494189,-0.09710254749503369,0.6059989073854374,-0.9721898515044813,0.18461797698178517,1.1919553699722325,1.356021030938297]},{"children_left":[1,2,-1,-1,5,-1,-1],"children_right":[4,3,-1,-1,6,-1,-1],"feature":[10,11,-2,-2,2,-2,-2],"threshold":[6.3516526222229,12.588224411010742,-2.0,-2.0,6.0,-2.0,-2.0],"value":[0.00125248127925315,-0.17438455534658254,-1.2399688369876014,0.4490057562433518,0.09545227600937244,0.9919672008768345,-0.2907683331459173]},{"children_left":[1,2,-1,-1,5,-1,-1],"children_right":[4,3,-1,-1,6,-1,-1],"feature":[11,2,-2,-2,2,-2,-2],"threshold":[14.523821830749512,3.0,-2.0,-2.0,6.0,-2.0,-2.0],"value":[0.0012250281976169156,-0.08874472138853493,0.5800401654518369,-0.9109725646464532,0.16897507742599058,1.1687158866811673,1.333977839812549]},{"children_left":[1,2,-1,-1,5,-1,-1],"children_right":[4,3,-1,-1,6,-1,-1],"feature":[10,11,-2,-2,2,-2,-2],"threshold":[6.3516526222229,12.588224411010742,-2.0,-2.0,6.0,-2.0,-2.0],"value":[0.0012245142301609282,-0.1596809031273757,-1.167833028003552,0.4313642599668193,0.08752326748420283,0.9618965053589452,-0.2734463675547907]},{"children_left":[1,2,-1,-1,5,-1,-1],"children_right":[4,3,-1,-1,6,-1,-1],"feature":[10,11,-2,-2,9,-2,-2],"threshold":[6.9002110958099365,13.97451639175415,-2.0,-2.0,7.704396724700928,-2.0,-2.0],"value":[0.0011903551618717596,-0.08136967677895461,-0.844673820639365,0.5809127832959202,0.158216298265012,1.445168436275228,0.9057505379093169]},{"children_left":[1,2,-1,-1,5,-1,-1],"children_right":[4,3,-1,-1,6,-1,-1],"feature":[11,2,-2,-2,2,-2,-2],"threshold":[14.523821830749512,3.0,-2.0,-2.0,6.0,-2.0,-2.0],"value":[0.0011670574547307559,-0.07804447178212867,0.5714044062062171,-0.8503312947601973,0.1488582313221658,1.1418479027495023,1.2994230960706814]},{"children_left":[1,2,-1,-1,5,-1,-1],"children_right":[4,3,-1,-1,6,-1,-1],"feature":[10,2,-2,-2,9,-2,-2],"threshold":[6.9002110958099365,3.0,-2.0,-2.0,7.704396724700928,-2.0,-2.0],"value":[0.0011613027829672643,-0.07443982972724877,0.5060003861912389,-0.8375792249500732,0.1449516920671032,1.4243099681732112,0.8676462510729666]},{"children_left":[1,2,-1,-1,5,-1,-1],"children_right":[4,3,-1,-1,6,-1,-1],"feature":[11,10,-2,-2,2,-2,-2],"threshold":[13.83067512512207,6.9002110958099365,-2.0,-2.0,6.0,-2.0,-2.0],"value":[0.0011274041330180831,-0.10908310505621764,-0.8279702394528864,1.367665822106723,0.09228918333892913,1.1534987012396034,-0.29315982984575095]},{"children_left":[1,2,-1,-1,5,-1,-1],"children_right":[4,3,-1,-1,6,-1,-1],"feature":[11,2,-2,-2,2,-2,-2],"threshold":[14.523821830749512,6.0,-2.0,-2.0,6.0,-2.0,-2.0],"value":[0.0011364312040869219,-0.069533307004203,0.06428659437399917,-1.2470489089378225,0.13290129792793084,1.1199378488521492,1.2810984361348199]},{"children_left":[1,2,-1,-1,5,-1,-1],"children_right":[4,3,-1,-1,6,-1,-1],"feature":[11,10,-2,-2,2,-2,-2],"threshold":[12.588224411010742,6.586361885070801,-2.0,-2.0,6.0,-2.0,-2.0],"value":[0.0011017449247619113,-0.1436964520677809,-1.0134065874323726,1.2525239162659556,0.06105004304269383,0.8633693643902974,-0.47495200382359365]},{"children_left":[1,2,-1,-1,5,-1,-1],"children_right":[4,3,-1,-1,6,-1,-1],"feature":[11,2,-2,-2,2,-2,-2],"threshold":[14.523821830749512,3.0,-2.0,-2.0,6.0,-2.0,-2.0],"value":[0.0010688503827562276,-0.06415933478220617,0.524536223140682,-0.7572645158441007,0.12268785369033176,1.1064881729026872,1.26784185054939]},{"children_left":[1,2,-1,-1,5,-1,-1],"children_right":[4,3,-1,-1,6,-1,-1],"feature":[10,9,-2,-2,2,-2,-2],"threshold":[5.315626621246338,7.278777599334717,-2.0,-2.0,6.0,-2.0,-2.0],"value":[0.0010569032626613119,-0.16525146238207933,-1.8438093948931433,-0.345854028753038,0.04572257860724878,0.6448243361942583,-0.36887007267570854]},{"children_left":[1,2,-1,-1,5,-1,-1],"children_right":[4,3,-1,-1,6,-1,-1],"feature":[10,4,-2,-2,9,-2,-2],"threshold":[6.9002110958099365,7.278777599334717,-2.0,-2.0,7.704396724700928,-2.0,-2.0],"value":[0.0010009093193194872,-0.05998418463692305,-0.9739373689187564,0.12408236781710812,0.11699216645178036,1.3571117875615144,0.7968954036006082]},{"children_left":[1,2,-1,-1,5,-1,-1],"children_right":[4,3,-1,-1,6,-1,-1],"feature":[11,2,-2,-2,2,-2,-2],"threshold":[14.523821830749512,3.0,-2.0,-2.0,6.0,-2.0,-2.0],"value":[0.0009670543742587628,-0.05794758667350742,0.5200164641708043,-0.7213331581302493,0.11081435284396463,1.092867444771351,1.247110272829633]},{"children_left":[1,2,-1,-1,5,-1,-1],"children_right":[4,3,-1,-1,6,-1,-1],"feature":[11,10,-2,-2,2,-2,-2],"threshold":[12.588224411010742,6.586361885070801,-2.0,-2.0,6.0,-2.0,-2.0],"value":[0.000956638606361784,-0.12079428795804042,-0.9160521218880175,1.213220598586544,0.05136307317124169,0.8198163699897113,-0.45420306184562703]},{"children_left":[1,2,-1,-1,5,-1,-1],"children_right":[4,3,-1,-1,6,-1,-1],"feature":[11,10,-2,-2,2,-2,-2],"threshold":[13.97451639175415,6.9002110958099365,-2.0,-2.0,6.0,-2.0,-2.0],"value":[0.0009246958415376245,-0.0753780300113149,-0.6508950296220554,1.3079597474518712,0.07452644024827164,1.2199176328994628,-0.18575690013398966]},{"children_left":[1,2,-1,-1,5,-1,-1],"children_right":[4,3,-1,-1,6,-1,-1],"feature":[11,2,-2,-2,2,-2,-2],"threshold":[14.523821830749512,3.0,-2.0,-2.0,6.0,-2.0,-2.0],"value":[0.000937761654628439,-0.05173702396061299,0.5093472610301968,-0.6860150608612405,0.09915074902756234,1.076965006701922,1.2382882209421409]},{"children_left":[1,2,-1,-1,5,-1,-1],"children_right":[4,3,-1,-1,6,-1,-1],"feature":[10,9,-2,-2,2,-2,-2],"threshold":[5.315626621246338,7.278777599334717,-2.0,-2.0,6.0,-2.0,-2.0],"value":[0.0009240468535831533,-0.1327840950596184,-1.7247192974920145,-0.24133772834691852,0.036834233538843034,0.5961123869043464,-0.3378419977930639]},{"children_left":[1,2,-1,-1,5,-1,-1],"children_right":[4,3,-1,-1,6,-1,-1],"feature":[10,2,-2,-2,9,-2,-2],"threshold":[6.9002110958099365,3.0,-2.0,-2.0,7.704396724700928,-2.0,-2.0],"value":[0.0008686704659627595,-0.04853113229216661,0.4634384507659562,-0.6948709333202717,0.09482515806475779,1.2994623832514975,0.7291267111620786]},{"children_left":[1,2,-1,-1,5,-1,-1],"children_right":[4,3,-1,-1,6,-1,-1],"feature":[11,10,-2,-2,2,-2,-2],"threshold":[12.588224411010742,6.586361885070801,-2.0,-2.0,6.0,-2.0,-2.0],"value":[0.0008342848789398236,-0.10218069885252827,-0.8269409549237291,1.1131873844629951,0.04348380043655394,0.7664082328099736,-0.3941529888697965]},{"children_left":[1,2,-1,-1,5,-1,-1],"children_right":[4,3,-1,-1,6,-1,-1],"feature":[11,2,-2,-2,2,-2,-2],"threshold":[14.523821830749512,6.0,-2.0,-2.0,6.0,-2.0,-2.0],"value":[0.0008033882135295861,-0.04694829310305377,0.08011278984710143,-1.0706628950786503,0.0898371682167074,1.0651024639790223,1.2321076477387194]},{"children_left":[1,2,-1,-1,5,-1,-1],"children_right":[4,3,-1,-1,6,-1,-1],"feature":[11,10,-2,-2,2,-2,-2],"threshold":[13.97451639175415,6.9002110958099365,-2.0,-2.0,6.0,-2.0,-2.0],"value":[0.0007731520012082769,-0.062470259461756966,-0.5841477130468226,1.2567403902102614,0.061777858633626045,1.2070024427045392,-0.1546160065686235]},{"children_left":[1,2,-1,-1,5,-1,-1],"children_right":[4,3,-1,-1,6,-1,-1],"feature":[11,2,-2,-2,2,-2,-2],"threshold":[14.523821830749512,3.0,-2.0,-2.0,6.0,-2.0,-2.0],"value":[0.0007846738074315526,-0.04277365874037734,0.47864600256748374,-0.6286896934104569,0.08199988739657207,1.0568147681220867,1.2176411303125132]},{"children_left":[1,2,-1,-1,5,-1,-1],"children_right":[4,3,-1,-1,6,-1,-1],"feature":[11,2,-2,-2,2,-2,-2],"threshold":[10.050679683685303,3.0,-2.0,-2.0,3.0,-2.0,-2.0],"value":[0.0007729884042139988,-0.2389708111536856,-1.409491621786694,-1.2005172729493905,0.015077511050866734,0.866320997285014,-0.24670987227874547]},{"children_left":[1,2,-1,-1,5,-1,-1],"children_right":[4,3,-1,-1,6,-1,-1],"feature":[11,10,-2,-2,2,-2,-2],"threshold":[12.588224411010742,6.586361885070801,-2.0,-2.0,6.0,-2.0,-2.0],"value":[0.0007511098479734331,-0.08697989095665846,-0.7582986511564291,1.0866823389912286,0.037072861773458005,0.7189540952688472,-0.3525880061774166]},{"children_left":[1,2,-1,-1,5,-1,-1],"children_right":[4,3,-1,-1,6,-1,-1],"feature":[11,2,-2,-2,2,-2,-2],"threshold":[14.523821830749512,6.0,-2.0,-2.0,6.0,-2.0,-2.0],"value":[0.0007204901170890128,-0.03953096547285586,0.08169742386308104,-1.0028049387611444,0.075769978281567,1.049762602621173,1.2097489177001446]},{"children_left":[1,2,-1,-1,5,-1,-1],"children_right":[4,3,-1,-1,6,-1,-1],"feature":[10,4,-2,-2,9,-2,-2],"threshold":[6.9002110958099365,7.278777599334717,-2.0,-2.0,7.704396724700928,-2.0,-2.0],"value":[0.0006916045400199953,-0.03807169114458718,-0.8331233001899124,0.1927819783350112,0.07441787280290017,1.2560432963077688,0.6582322826015244]},{"children_left":[1,2,-1,-1,5,-1,-1],"children_right":[4,3,-1,-1,6,-1,-1],"feature":[11,11,-2,-2,2,-2,-2],"threshold":[10.050679683685303,8.776082515716553,-2.0,-2.0,3.0,-2.0,-2.0],"value":[0.000662199540243605,-0.20816148203707513,-1.7550363944521594,-1.0222758074967777,0.013121846412398679,0.8423801868830965,-0.2389327884836762]},{"children_left":[1,2,-1,-1,5,-1,-1],"children_right":[4,3,-1,-1,6,-1,-1],"feature":[11,10,-2,-2,2,-2,-2],"threshold":[13.97451639175415,6.9002110958099365,-2.0,-2.0,6.0,-2.0,-2.0],"value":[0.0006423082041432514,-0.05088702529172962,-0.5217480620936831,1.2229923053674072,0.05034759449662242,1.2058665246015692,-0.14898540005489846]},{"children_left":[1,2,-1,-1,5,-1,-1],"children_right":[4,3,-1,-1,6,-1,-1],"feature":[11,2,-2,-2,2,-2,-2],"threshold":[14.523821830749512,6.0,-2.0,-2.0,6.0,-2.0,-2.0],"value":[0.0006522334219903491,-0.035090454274264236,0.09089146367607111,-0.977705448276969,0.06729505112662013,1.0414257089399892,1.1952169053586554]},{"children_left":[1,2,-1,-1,5,-1,-1],"children_right":[4,3,-1,-1,6,-1,-1],"feature":[11,10,-2,-2,2,-2,-2],"threshold":[12.588224411010742,6.586361885070801,-2.0,-2.0,6.0,-2.0,-2.0],"value":[0.0006250378250384924,-0.0726829488798385,-0.6731797205969786,1.0238674013216047,0.030975478180560814,0.6629281488404685,-0.31936206216921675]},{"children_left":[1,2,-1,-1,5,-1,-1],"children_right":[4,3,-1,-1,6,-1,-1],"feature":[11,2,-2,-2,2,-2,-2],"threshold":[14.523821830749512,3.0,-2.0,-2.0,6.0,-2.0,-2.0],"value":[0.0005982661546813512,-0.03280552614571813,0.4485749929059625,-0.5580654563412023,0.06288017566961986,1.0374067149230903,1.1852721065577987]},{"children_left":[1,2,-1,-1,5,-1,-1],"children_right":[4,3,-1,-1,6,-1,-1],"feature":[11,3,-2,-2,2,-2,-2],"threshold":[10.050679683685303,0.9485294222831726,-2.0,-2.0,3.0,-2.0,-2.0],"value":[0.0005901579735091028,-0.1850740905950596,-0.7498772050767709,-1.6135111818318277,0.011667977100512004,0.8022517009349757,-0.21528616065841943]},{"children_left":[1,2,-1,-1,5,-1,-1],"children_right":[4,3,-1,-1,6,-1,-1],"feature":[10,4,-2,-2,9,-2,-2],"threshold":[6.9002110958099365,7.278777599334717,-2.0,-2.0,7.704396724700928,-2.0,-2.0],"value":[0.0005691081026526191,-0.03166383080610612,-0.7709929332072263,0.1975578272351656,0.06187489387029201,1.2212260438757654,0.6038832411982057]},{"children_left":[1,2,-1,-1,5,-1,-1],"children_right":[4,3,-1,-1,6,-1,-1],"feature":[10,4,-2,-2,7,-2,-2],"threshold":[5.315626621246338,7.278777599334717,-2.0,-2.0,0.5833333432674408,-2.0,-2.0],"value":[0.0005436249109424544,-0.08191371172567907,-1.542111329153213,-0.07004131686807546,0.02268930960763507,0.09787379798077608,1.2319696515898062]},{"children_left":[1,2,-1,-1,5,-1,-1],"children_right":[4,3,-1,-1,6,-1,-1],"feature":[11,2,-2,-2,2,-2,-2],"threshold":[14.400392055511475,3.0,-2.0,-2.0,3.0,-2.0,-2.0],"value":[0.0005029124250958922,-0.033525594071810653,0.41363995408899945,-0.5694051147859007,0.05135450078564174,1.0381662385570511,0.7374290660126324]},{"children_left":[1,2,-1,-1,5,-1,-1],"children_right":[4,3,-1,-1,6,-1,-1],"feature":[10,4,-2,-2,9,-2,-2],"threshold":[6.9002110958099365,7.278777599334717,-2.0,-2.0,7.704396724700928,-2.0,-2.0],"value":[0.0004854047107104162,-0.028862204806855248,-0.7247262346161006,0.1844863370012566,0.05630340712647256,1.1781406516628024,0.5727275186100547]},{"children_left":[1,2,-1,-1,5,-1,-1],"children_right":[4,3,-1,-1,6,-1,-1],"feature":[10,9,-2,-2,2,-2,-2],"threshold":[5.315626621246338,7.278777599334717,-2.0,-2.0,6.0,-2.0,-2.0],"value":[0.00046391718322278546,-0.07529058036319554,-1.498880796729858,-0.06582706177448859,0.020809410809975098,0.4711695166218325,-0.2638413247968349]},{"children_left":[1,2,-1,-1,5,-1,-1],"children_right":[4,3,-1,-1,6,-1,-1],"feature":[11,2,-2,-2,2,-2,-2],"threshold":[14.523821830749512,6.0,-2.0,-2.0,6.0,-2.0,-2.0],"value":[0.000427600809912467,-0.02798950134178135,0.10703142734728026,-0.9316404804007342,0.05341174611210282,1.0302186258958905,1.1622698476842455]},{"children_left":[1,2,-1,-1,5,-1,-1],"children_right":[4,3,-1,-1,6,-1,-1],"feature":[2,11,-2,-2,11,-2,-2],"threshold":[3.0,10.731945037841797,-2.0,-2.0,14.635393619537354,-2.0,-2.0],"value":[0.00041044252783052854,0.04255302826644634,-0.9962843012420894,0.9366422995789944,-0.032895794588172315,-0.507245747501205,1.1261048675299712]},{"children_left":[1,2,-1,-1,5,-1,-1],"children_right":[4,3,-1,-1,6,-1,-1],"feature":[10,4,-2,-2,9,-2,-2],"threshold":[6.9002110958099365,7.278777599334717,-2.0,-2.0,7.704396724700928,-2.0,-2.0],"value":[0.00042252936326136136,-0.026329871015379216,-0.6885972756267521,0.17536025211422346,0.05130454576969532,1.1840094886051151,0.5362608514270977]},{"children_left":[1,2,-1,-1,5,-1,-1],"children_right":[4,3,-1,-1,6,-1,-1],"feature":[2,11,-2,-2,11,-2,-2],"threshold":[3.0,10.731945037841797,-2.0,-2.0,14.635393619537354,-2.0,-2.0],"value":[0.00040379258337841457,0.04102181939333067,-0.911726755666552,0.9175976713040164,-0.031697551185777426,-0.4888812593754702,1.1160923896491801]},{"children_left":[1,2,-1,-1,5,-1,-1],"children_right":[4,3,-1,-1,6,-1,-1],"feature":[10,9,-2,-2,7,-2,-2],"threshold":[5.315626621246338,7.278777599334717,-2.0,-2.0,0.5833333432674408,-2.0,-2.0],"value":[0.00041355822192043706,-0.0670892026627462,-1.4387465762303278,-0.0708414464283615,0.018542871145230927,0.07513492020422137,1.2162664561826673]},{"children_left":[1,2,-1,-1,5,-1,-1],"children_right":[4,3,-1,-1,6,-1,-1],"feature":[2,9,-2,-2,10,-2,-2],"threshold":[3.0,